model/conv_0:0
[[[[  1.38045445e-01  -1.46400137e-02   2.82966852e-01   2.68571496e-01
     -4.69509870e-01   8.97030532e-01   2.67348915e-01  -6.98539838e-02
      4.61326391e-02  -9.92121637e-01   7.71571815e-01   8.46610725e-01
     -1.02525681e-01   1.01633243e-01  -9.97283280e-01  -5.81601709e-02]
   [  6.99609295e-02   7.26479739e-02   1.10982887e-01  -1.64291799e-01
     -5.31461716e-01  -3.13021779e-01   1.36681646e-01   1.31940722e-01
      1.53790385e-01  -8.51149201e-01   6.43159986e-01   8.87937427e-01
      2.76981533e-01   1.87849194e-01  -7.12542534e-01  -1.37516439e-01]
   [  1.15467720e-01   2.52886057e-01  -3.07129145e-01  -8.26322064e-02
     -3.06599379e-01  -7.02495456e-01   8.39138925e-02   1.05840571e-01
     -1.05715238e-01  -5.05699039e-01   4.28499699e-01   6.61739647e-01
      2.64500767e-01   7.69355148e-02  -4.98867810e-01   3.62701893e-01]]

  [[  1.82221666e-01   6.01502731e-02   2.52530754e-01   3.11880410e-01
     -7.66884387e-01   4.19016629e-01   9.61280942e-01  -3.21262419e-01
     -3.94521654e-02   1.07217610e-01   1.30221343e+00  -3.13934952e-01
     -3.10480535e-01   4.60257024e-01  -1.41369843e+00  -4.24606688e-02]
   [  2.98730880e-02   5.74144088e-02   2.14224622e-01  -1.71963468e-01
     -7.11283505e-01  -1.57734871e-01   8.97772491e-01  -3.49191427e-01
      3.01379740e-04   1.62326306e-01   1.20720577e+00  -2.61887014e-01
      1.41308397e-01   5.79901338e-01  -1.27222991e+00  -3.26112568e-01]
   [  2.05915555e-01   2.18354151e-01  -2.55279005e-01  -7.29385838e-02
     -5.16216040e-01  -2.91757286e-01   5.84125757e-01  -2.46293694e-01
     -1.46708369e-01   2.06927001e-01   8.29119802e-01  -9.55578089e-02
      1.21232316e-01   3.08332711e-01  -9.30779994e-01   3.38745058e-01]]

  [[  1.48112774e-01   1.01611719e-01   1.49333579e-02   6.27993941e-02
     -4.64343429e-01  -2.37588555e-01  -1.31036222e-01  -8.19773600e-02
      2.16608629e-01   8.82838368e-01   7.26122499e-01  -6.99063897e-01
     -6.64898902e-02   4.31777030e-01  -8.02680492e-01   2.88760960e-02]
   [ -4.91845608e-02   1.18054807e-01   1.76290333e-01   8.09905678e-03
     -4.00063634e-01  -2.38627549e-02  -1.51165456e-01   6.86158985e-02
      1.61631510e-01   6.93934143e-01   5.37212908e-01  -7.45080411e-01
      1.90240324e-01   5.23697376e-01  -6.16710901e-01  -1.40364930e-01]
   [  1.10848323e-01   2.08498403e-01  -1.36620760e-01  -3.19067575e-02
     -2.16681778e-01   6.67757764e-02  -5.26481830e-02   1.53046727e-01
     -1.18896730e-01   3.71142477e-01   3.93101722e-01  -6.52346313e-01
      1.05002090e-01   2.83486247e-01  -5.11146665e-01   2.98592567e-01]]]


 [[[  6.58521205e-02   3.68154943e-02   2.42497921e-01   4.37604606e-01
      4.57724556e-02   5.12851834e-01  -2.35177815e-01  -1.33913159e-01
      1.03512034e-02  -1.37580574e+00   5.68341687e-02   1.33528829e+00
     -4.06809568e-01  -3.35858464e-01  -2.70999763e-02   4.75843251e-03]
   [  1.70184392e-02   5.69389462e-02   7.06246197e-02  -3.79576504e-01
      4.06602025e-03  -6.36544973e-02  -2.48588860e-01  -5.68059571e-02
      1.00252502e-01  -1.30082524e+00   7.96449482e-02   1.35396600e+00
      1.20289840e-01  -4.04042035e-01   3.15573364e-02  -2.28846058e-01]
   [  9.38108414e-02   1.88559979e-01  -4.14674848e-01  -7.37766102e-02
     -4.75467503e-04  -3.82241994e-01  -2.13213921e-01  -8.26677158e-02
      6.83940649e-02  -8.45767975e-01   8.46249163e-02   1.02047944e+00
      1.67444497e-01  -2.14716598e-01   1.22583672e-01   4.00629103e-01]]

  [[ -9.18773934e-02   2.57775486e-01   2.46608615e-01   5.74791491e-01
      7.22214580e-02  -1.17896311e-01   6.02562904e-01  -2.39384159e-01
     -4.33510989e-01  -4.37616706e-02   5.99001721e-02  -4.84102607e-01
     -6.34636998e-01  -9.87493038e-01  -2.12272536e-02  -1.66519016e-01]
   [ -1.44746006e-01   2.76949316e-01   1.31927684e-01  -4.65023100e-01
      1.69933617e-01  -5.63232414e-02   6.67461634e-01  -2.22154975e-01
     -3.77805352e-01   2.03331038e-02   5.10700718e-02  -4.51237977e-01
      2.49993894e-02  -1.19787776e+00   2.56630685e-03  -6.21263623e-01]
   [  1.26534440e-02   2.62346655e-01  -4.63363290e-01  -1.18951090e-01
      9.77792293e-02   5.15039563e-02   4.56491470e-01  -2.03031778e-01
     -1.67609915e-01   9.37915891e-02   6.54819533e-02  -2.08619580e-01
      9.19514447e-02  -6.62194669e-01   3.24513167e-02   2.26527840e-01]]

  [[ -1.81504235e-01   7.02471435e-02   5.92186004e-02   3.07669759e-01
      4.93626446e-02  -5.69795966e-01  -4.65190738e-01  -1.26915470e-01
      2.66956300e-01   1.28659284e+00  -2.67663710e-02  -9.39864516e-01
     -2.58509606e-01  -8.62971663e-01   5.75131774e-02   1.14633873e-01]
   [ -2.34100640e-01   5.10855950e-02   1.38473585e-01  -2.37874061e-01
      6.10881224e-02   1.43220693e-01  -4.52895880e-01  -2.42650770e-02
      1.42572775e-01   1.15576768e+00  -1.22436453e-02  -9.65784907e-01
      1.83629245e-01  -1.04572833e+00   9.64463726e-02  -1.73690930e-01]
   [ -9.85092893e-02   1.17587075e-01  -2.98294097e-01  -7.75383562e-02
      6.35326207e-02   5.62201798e-01  -2.80582130e-01   1.44001441e-02
     -2.39835903e-02   7.10235000e-01   1.25456685e-02  -7.71273494e-01
      1.96298942e-01  -5.96466660e-01   8.73600543e-02   3.93368155e-01]]]


 [[[  1.87339671e-02   9.82772708e-02   8.89801830e-02   2.24080712e-01
      4.52395678e-01   8.26462656e-02  -3.45473647e-01   5.18811420e-02
      1.17943913e-01  -8.97002041e-01  -8.24489892e-01   9.85948086e-01
     -1.75863206e-01   2.02542633e-01   9.52310264e-01  -6.12593368e-02]
   [  4.23906334e-02   8.44258666e-02   3.24783474e-02  -2.82007784e-01
      4.27176625e-01   1.26631722e-01  -3.27406675e-01   1.91261172e-02
      1.12862900e-01  -7.43024230e-01  -6.91059351e-01   7.86615372e-01
      1.76931977e-01   2.19410762e-01   6.91409290e-01  -1.82661384e-01]
   [  8.16947874e-03   1.32757485e-01  -1.75084144e-01   2.39292979e-02
      2.89533198e-01  -1.60600334e-01  -1.82432964e-01  -1.81065779e-02
      1.28396645e-01  -5.81942558e-01  -4.94042397e-01   6.64223433e-01
      1.54807299e-01   1.11010119e-01   5.16127944e-01   3.07725787e-01]]

  [[ -2.48225808e-01   1.01240650e-01   1.36686206e-01   4.05572087e-01
      6.60544336e-01  -4.19826061e-01  -3.43370825e-01   6.35023713e-02
     -5.37983060e-01   1.42405063e-01  -1.29300737e+00  -1.42501891e-01
     -5.24283946e-01   5.14205098e-01   1.44439483e+00  -2.05758601e-01]
   [ -1.61498100e-01   4.23039012e-02   7.43947029e-02  -4.12351251e-01
      6.67832077e-01   9.05854926e-02  -2.84325719e-01   1.33915111e-01
     -4.84530807e-01   2.01184377e-01  -1.21282649e+00  -1.19847581e-01
     -1.47416024e-03   6.06815159e-01   1.23167324e+00  -4.88674670e-01]
   [ -1.74670085e-01   5.51904924e-02  -2.61012077e-01  -5.84202111e-02
      3.59502286e-01   2.05278605e-01  -2.20038936e-01   5.48089445e-02
     -1.91727191e-01   2.02447399e-01  -8.71368647e-01  -2.80114524e-02
      4.06490117e-02   3.81454974e-01   8.65022004e-01   2.22248957e-01]]

  [[ -2.69778758e-01   8.87172371e-02   2.34671775e-02   2.59697825e-01
      3.42141211e-01  -7.87893593e-01  -3.32615823e-01  -4.57139984e-02
      2.43789896e-01   8.99998426e-01  -7.82119632e-01  -5.71392894e-01
     -2.04093874e-01   4.71362650e-01   7.87525177e-01  -2.33330671e-02]
   [ -1.71604425e-01   6.11746870e-02   6.97856247e-02  -2.22456664e-01
      3.26129615e-01   3.43335301e-01  -2.80609518e-01  -2.29056943e-02
      9.07334313e-02   6.26520038e-01  -6.06020689e-01  -4.94870007e-01
      1.42903328e-01   5.33636987e-01   5.16816437e-01  -1.82852134e-01]
   [ -2.29182720e-01   9.81523544e-02  -2.04239354e-01  -7.40153044e-02
      2.24363104e-01   7.33270705e-01  -1.59824818e-01  -6.04421720e-02
      8.79277661e-03   4.01175350e-01  -4.52500492e-01  -5.52942336e-01
      1.75025612e-01   3.16282332e-01   3.73167157e-01   2.91163772e-01]]]]
model/bias_0:0
[-1.70671201 -5.63302326  0.96328062  0.8748318  -4.72752857  2.48968458
 -5.3435564  -6.56590319 -3.08093262  1.19021213  1.09910059  1.31972289
  0.50875235 -0.1239007   1.80774987  0.76308447]
model/scale_0:0
[ 2.6955955   4.26691437  1.10573637  1.28821731  4.84104919  2.02212286
  4.80120754  5.97679567  4.24541903  4.42353106  4.43394995  4.39242172
  1.6602242   2.89273643  4.56613493  1.65069675]
model/mean_0:0
[-0.34385845  1.31451118  0.04954183  0.06261846 -0.03147995 -0.02966825
 -0.01960223 -0.65152586 -0.30869597  0.01113006 -0.00648965  0.01779757
 -0.14907968 -0.00398266 -0.00216592 -0.12428126]
model/variance_0:0
[ 0.05691771  0.70284998  0.12774497  0.14587276  0.09875622  0.00751783
  0.05765409  0.16415539  0.05108834  0.362499    0.29302242  0.35805771
  0.14874974  0.04236555  0.33863106  0.12539841]
model/conv_1:0
[[[[  6.94278181e-02  -1.38996109e-01  -6.41066656e-02 ...,
     -5.73859587e-02   7.43754879e-02   1.28042614e-02]
   [ -4.49026413e-02  -6.55541196e-02  -2.41472453e-01 ...,
      3.48570533e-02  -1.01985320e-01  -2.00594217e-02]
   [  2.80925371e-02   2.75006056e-01   3.96029279e-02 ...,
      6.02222420e-02   1.39636621e-02  -1.22289255e-01]
   ..., 
   [ -4.34779003e-02  -1.84848960e-02  -7.46132582e-02 ...,
      6.76067770e-02   5.87866604e-02   1.85048729e-02]
   [ -1.16373830e-01   3.20501216e-02   7.27960467e-02 ...,
      6.67684004e-02   1.22933030e-01   2.54301988e-02]
   [  9.83119458e-02  -1.52243108e-01   8.52052867e-03 ...,
      1.94411464e-02  -6.17757998e-03  -1.27775297e-02]]

  [[  6.16442449e-02  -1.79493412e-01  -1.88047394e-01 ...,
     -5.19337766e-02  -1.16170712e-01   5.80472872e-03]
   [ -5.66494912e-02  -3.94176692e-02  -1.92249402e-01 ...,
      1.50095895e-02   2.97655500e-02   2.89763622e-02]
   [  8.11071545e-02   4.30079430e-01  -1.20164659e-02 ...,
      6.00460470e-02  -3.80674973e-02  -7.68091753e-02]
   ..., 
   [ -1.72237623e-02   4.74588796e-02  -4.53322530e-02 ...,
     -5.46930172e-03  -2.94125490e-02  -1.46928523e-02]
   [ -1.57694072e-01   4.60116677e-02   1.11661680e-01 ...,
      5.94424978e-02  -3.39597627e-03  -3.12492531e-02]
   [  7.79821724e-02  -4.06809658e-01  -3.25601995e-02 ...,
     -6.86562574e-03  -7.87981972e-02   5.07501960e-02]]

  [[  4.82277833e-02  -4.91197174e-03   4.39107977e-02 ...,
     -1.74982455e-02   1.00461870e-01   3.20256017e-02]
   [ -6.57749623e-02  -2.88682785e-02  -6.42966032e-02 ...,
     -5.11443708e-03   9.91926789e-02   9.75554436e-02]
   [  6.82941824e-02   2.73743302e-01   3.63184772e-02 ...,
      7.08863065e-02  -5.50469309e-02   2.82200482e-02]
   ..., 
   [ -9.92228240e-02  -7.23587163e-03   1.92955304e-02 ...,
      1.08933419e-01   2.72616856e-02   9.87869408e-03]
   [ -1.28438726e-01   9.70336143e-03  -1.16629601e-01 ...,
      1.01602279e-01  -3.39290798e-02   2.09414158e-02]
   [  6.34103194e-02  -2.52960652e-01  -8.40129033e-02 ...,
     -1.59903020e-02   7.09749386e-03  -2.75446326e-02]]]


 [[[  6.85149282e-02  -1.79663762e-01  -1.91561997e-01 ...,
      1.30381286e-01   4.22987267e-02   2.95937285e-02]
   [  1.30055593e-02  -1.96121484e-02  -1.62820578e-01 ...,
     -2.45559290e-02  -1.15073130e-01   9.72971506e-03]
   [ -4.10260186e-02   4.07833517e-01   1.04775662e-02 ...,
      6.35622442e-03   2.44373046e-02  -1.08779795e-01]
   ..., 
   [ -5.33461152e-03   8.97909887e-03  -9.14757103e-02 ...,
      1.14120372e-01   9.93971452e-02   5.18184388e-03]
   [ -7.44266361e-02  -5.10289557e-02   3.19037437e-02 ...,
      1.73456714e-01   9.62483638e-04  -3.70093016e-03]
   [  1.34357288e-01  -2.84343809e-01  -3.46702859e-02 ...,
     -2.12492049e-02   3.43722962e-02   4.91177067e-02]]

  [[  6.92058131e-02  -1.96207449e-01   4.37187664e-02 ...,
      1.42220661e-01  -1.81129783e-01   8.64273310e-03]
   [ -7.35710002e-03  -3.73756401e-02   3.72272283e-02 ...,
     -1.25368647e-02   2.44134702e-02   7.52407983e-02]
   [  1.26263481e-02   6.36933565e-01  -4.19433713e-02 ...,
     -9.96141927e-04  -1.53277479e-02   4.22886647e-02]
   ..., 
   [  1.07763875e-02  -2.40333448e-03  -2.66611814e-01 ...,
      3.16925198e-02  -6.47323281e-02  -1.17648179e-02]
   [ -6.46551028e-02  -4.09479029e-02   3.53084296e-01 ...,
      1.57990202e-01  -6.21260963e-02  -2.14551128e-02]
   [  1.31252274e-01  -6.31249964e-01  -1.21092185e-01 ...,
     -2.18015481e-02  -2.80536320e-02   5.08540943e-02]]

  [[  5.51869720e-02  -9.82492417e-03   2.45609730e-01 ...,
      1.29712194e-01   6.92303106e-02   1.53218070e-02]
   [ -1.31800743e-02  -1.86656322e-02   1.47382274e-01 ...,
     -4.87469062e-02   6.47943690e-02   1.46097377e-01]
   [  1.27497576e-02   4.98803794e-01  -5.13625592e-02 ...,
     -7.56039657e-03  -1.17760524e-02   2.15872288e-01]
   ..., 
   [ -5.00789359e-02  -1.51089188e-02   5.25123402e-02 ...,
      1.04071572e-01   3.55581120e-02   2.86944769e-03]
   [ -9.01651680e-02  -3.37930173e-02  -3.01226854e-01 ...,
      1.88550234e-01  -1.23042032e-01   2.93779187e-02]
   [  1.39271975e-01  -4.19329882e-01   7.81657100e-02 ...,
     -5.33169918e-02   7.82722682e-02  -4.85592186e-02]]]


 [[[  3.51782516e-02  -4.57406715e-02  -7.08038406e-03 ...,
     -3.19234747e-03   5.59448749e-02   3.63828242e-02]
   [  5.71532361e-03   1.35036483e-02  -4.42031622e-02 ...,
      2.81078592e-02  -1.22091681e-01   8.13068077e-02]
   [ -1.12045780e-01   2.27714345e-01   2.36311201e-02 ...,
     -2.18906743e-03   1.62377246e-02  -8.15038756e-03]
   ..., 
   [  2.79665319e-03  -1.54363681e-02  -4.68866080e-02 ...,
      1.27277881e-01   7.66774714e-02   1.01377489e-02]
   [ -1.17821274e-02  -1.15200356e-02   3.32918279e-02 ...,
      3.08075100e-01   4.77596931e-03  -1.02140568e-03]
   [  5.45095131e-02  -1.12196498e-01  -1.25874449e-02 ...,
      5.11342734e-02   2.95428596e-02  -2.25620903e-02]]

  [[  1.74904650e-03  -1.43840630e-02   2.16751739e-01 ...,
     -3.84310894e-02  -1.40707418e-01   5.16437627e-02]
   [ -1.62891094e-02  -2.14243606e-02   1.33166462e-01 ...,
      7.10192742e-03   1.15142195e-02   1.35283351e-01]
   [ -5.58695868e-02   4.26830143e-01  -4.10283953e-02 ...,
     -1.71820342e-03  -1.80023089e-02   1.22749776e-01]
   ..., 
   [  2.78002564e-02  -1.18146837e-02   3.45867388e-02 ...,
      2.38452330e-02  -9.30430815e-02  -6.24402775e-04]
   [ -8.42162222e-03  -1.80925727e-02  -1.64404005e-01 ...,
      1.90864533e-01   1.07840663e-02   3.70984860e-02]
   [  3.55753340e-02  -3.22868586e-01  -1.76059827e-02 ...,
      4.16366793e-02  -4.73262221e-02   5.40961325e-03]]

  [[ -5.79210138e-03   7.49586523e-02  -1.92837080e-03 ...,
      3.28828096e-02   3.74478363e-02   2.37487704e-02]
   [ -4.29405048e-02  -3.07847355e-02   1.23538986e-01 ...,
     -3.94336926e-03   4.92595248e-02   1.79432705e-01]
   [ -6.37065470e-02   3.52537453e-01  -8.03120211e-02 ...,
      1.07392594e-02  -1.08064152e-02   2.19718188e-01]
   ..., 
   [ -3.82666439e-02   3.77779454e-03   1.03703976e-01 ...,
      1.31785601e-01   3.45939696e-02  -4.07846011e-02]
   [ -2.43912246e-02  -1.63893439e-02  -9.16509032e-02 ...,
      3.11245084e-01  -5.44802658e-02   1.72340069e-02]
   [  6.93220645e-02  -1.98670924e-01   1.74694255e-01 ...,
      3.04488353e-02   3.34950462e-02  -5.80795445e-02]]]]
model/bias_1:0
[-1.06090665  1.38753366 -1.80332267 -1.90178204 -1.58966899  0.90273136
 -0.77652258  1.39747298 -1.48935223  0.8803544  -1.33649647  0.58648551
 -0.49158159 -1.7755301  -0.61343735  0.2364496  -2.00414371  0.36939493
  0.60035098 -0.34892228  0.1628747  -0.93128008 -0.55137563 -0.96931416
 -1.97962999 -1.15716517 -1.61217988 -1.52497578 -1.4772073   0.39654568
 -1.92464709  0.17674074]
model/scale_1:0
[ 1.69309676  1.47690725  3.99584246  4.30668926  3.97440743  1.42442095
  4.69661951  1.30625844  3.45645165  1.54971433  4.07667208  1.148736
  1.0947901   4.28902817  5.36156464  3.1838479   5.42708683  4.38362312
  1.86829102  4.93794155  1.25908875  4.66701603  1.50646651  3.14513135
  4.55562782  5.49537134  5.7947588   4.07413435  4.66661358  4.17850351
  4.93871164  1.24399781]
model/mean_1:0
[  0.02101031  -0.12559281  -3.38784409  -4.82914066  -3.36231017
   3.65461016 -15.09447765  -2.24991727  -3.27561522  -0.86823535
  -3.84163713   1.09149623   9.92355728  -3.87793088  -6.87092209
  -3.25319004  -4.85184526  -7.31838608   0.06568799  -4.99722767
  -0.11458462  -8.20729923  -4.0463047   -6.10661507  -5.04517508
  -4.34310675  -8.54808235  -4.4075675   -6.21511221  -3.82314157
  -3.20312405  -1.60506642]
model/variance_1:0
[  10.76502991   36.32594681   35.40364838   62.89048767   33.56808853
   23.48341751  202.84187317   23.4496994    45.67623138   24.08382034
   52.84862137   28.17554474   55.64465714   50.43114471  127.49650574
   35.86367798   80.2468338   107.91461182   16.15082359  124.89510345
   18.01557159  104.57839966    9.30135155   62.69265366   54.4408493
   97.45658112  122.17925262   41.04696274  107.59527588   93.97250366
   79.12520599    6.80132914]
model/conv_2:0
[[[[  7.54318107e-03  -1.02355983e-02  -3.29175368e-02 ...,
     -3.71074229e-02  -5.27316891e-02   2.78441934e-04]
   [ -3.09746172e-02  -6.06814884e-02  -1.90554764e-02 ...,
     -4.87312786e-02   2.78288759e-02  -7.20622167e-02]
   [ -5.64947389e-02   8.69809389e-02  -6.27076766e-03 ...,
      4.61181104e-02  -1.74549311e-01  -1.18447348e-01]
   ..., 
   [  5.45829386e-02   5.51351625e-03  -1.48310175e-03 ...,
      6.91941455e-02   1.53259456e-01   1.76884923e-02]
   [ -1.34162083e-01   1.09421369e-02  -1.11507408e-01 ...,
     -4.47508581e-02   4.55822796e-03  -1.54878125e-02]
   [ -1.75825566e-01   7.29744975e-03   3.46354544e-02 ...,
     -4.56362851e-02  -3.68642434e-02  -8.06237943e-03]]

  [[ -4.70194966e-02  -1.68190718e-01   3.85112613e-02 ...,
      8.28389898e-02   5.11309728e-02   9.41248611e-03]
   [ -3.23156733e-03  -1.09033197e-01  -2.84602754e-02 ...,
      3.49473357e-02   6.96450844e-03   5.48508838e-02]
   [  5.20696007e-02   6.32685870e-02  -1.19820446e-01 ...,
      1.41584113e-01   1.44188121e-01  -1.14481643e-01]
   ..., 
   [  2.81162560e-01   1.08409777e-01   2.57855020e-02 ...,
      8.49460438e-02  -1.85615867e-01   2.76954547e-02]
   [ -6.23150282e-02   3.45108397e-02  -1.53091595e-01 ...,
     -2.41289567e-02   7.51523003e-02  -1.08595956e-02]
   [  3.35652530e-02  -3.86546203e-03   1.04953554e-02 ...,
      1.23565355e-02   2.58727930e-02  -1.06006823e-02]]

  [[ -3.06092147e-02  -8.43073800e-02   2.33194083e-02 ...,
      7.06623681e-03   4.48983014e-02   4.53754887e-03]
   [ -4.83886227e-02  -4.76678126e-02   5.95570356e-02 ...,
      1.75948031e-02   4.62930910e-02  -4.11032280e-03]
   [  8.29751715e-02   5.63287884e-02  -4.25605103e-02 ...,
      5.02977110e-02  -5.84869646e-02   7.23554194e-02]
   ..., 
   [ -4.63809818e-01  -9.46419090e-02   1.19794356e-02 ...,
      1.67179644e-01  -1.34745538e-02  -1.90941151e-02]
   [  7.79404640e-02  -1.74070115e-03  -1.73359104e-02 ...,
     -5.97068965e-02  -1.04396299e-01   3.31062935e-02]
   [  1.79509386e-01   3.33616473e-02  -1.83776431e-02 ...,
     -5.07947151e-03   1.97246913e-02   6.09118119e-02]]]


 [[[  3.41390707e-02   5.41427918e-02  -6.49769828e-02 ...,
      2.06410773e-02  -9.24907103e-02  -6.42022677e-03]
   [  2.62760594e-02  -2.41426402e-03  -2.30320636e-02 ...,
      2.68896669e-02   1.21160904e-02   1.33448849e-02]
   [ -6.06399365e-02  -6.04443178e-02   6.10688468e-03 ...,
      1.10434577e-01  -9.71342772e-02   7.43711949e-04]
   ..., 
   [  1.64927572e-01  -6.46607354e-02  -7.89461564e-03 ...,
     -4.28378209e-02   7.24030808e-02   7.56426062e-03]
   [ -1.48364529e-01  -4.69926707e-02   1.32606924e-01 ...,
     -6.87707867e-03  -2.66611297e-02  -8.06753188e-02]
   [ -1.31725430e-01   2.55454816e-02  -2.42865533e-02 ...,
      4.33341525e-02  -2.17459537e-02  -4.52298578e-03]]

  [[  4.68563810e-02  -9.03603435e-02  -9.75975953e-03 ...,
      6.78780377e-02  -3.45034823e-02   8.53464822e-04]
   [  5.04374281e-02  -1.39471586e-03  -9.33219865e-03 ...,
      2.77385972e-02   6.26952824e-05   1.27196237e-01]
   [  4.38101664e-02  -6.87078983e-02  -1.59598172e-01 ...,
      1.55708492e-01   1.64338484e-01   1.36463670e-02]
   ..., 
   [  2.97095507e-01   2.72911340e-02  -8.52060020e-02 ...,
     -9.89648048e-03  -2.94918269e-01   2.49815602e-02]
   [ -6.89501092e-02  -6.92186551e-03  -2.39391159e-03 ...,
      4.73321229e-02   1.60501599e-02  -5.60554750e-02]
   [  9.05678570e-02  -3.37349833e-03  -1.39797423e-02 ...,
      7.72304460e-02   3.69442962e-02   9.75893997e-03]]

  [[ -9.97984782e-03   5.83851943e-03   4.82646078e-02 ...,
     -9.17204749e-03   4.70540999e-03  -4.07929253e-03]
   [ -3.28489766e-02  -2.35049929e-02   6.03267290e-02 ...,
     -3.14987637e-02   7.94226769e-03   4.21127118e-02]
   [ -1.13614472e-02  -4.13710140e-02  -9.76382270e-02 ...,
     -3.16376835e-02  -1.08717963e-01   6.56409934e-02]
   ..., 
   [ -5.42026401e-01  -6.21846542e-02   4.63926271e-02 ...,
      4.13866490e-02   4.65473421e-02  -2.91803740e-02]
   [ -3.49885896e-02  -2.22004000e-02   3.47079113e-02 ...,
     -2.09442878e-04  -3.06899194e-02   4.01631892e-02]
   [  1.61909193e-01   6.15496598e-02  -3.24217826e-02 ...,
     -9.96117946e-03  -3.22104581e-02   4.31961864e-02]]]


 [[[  9.19047277e-04   4.01061215e-02   1.68151576e-02 ...,
     -2.71249022e-02   4.51664673e-03  -2.42021307e-02]
   [ -1.43845482e-02   3.83036807e-02  -2.20303405e-02 ...,
      5.80093190e-02   2.12986078e-02  -2.19134148e-02]
   [ -6.77422807e-02  -1.22035891e-01   4.10284139e-02 ...,
      8.57848972e-02   2.91321147e-03   6.10823557e-02]
   ..., 
   [  2.63835967e-01  -5.87326586e-02   4.39735129e-02 ...,
     -3.58645283e-02  -3.89674753e-02  -9.75770783e-03]
   [ -2.64138967e-01   5.31604327e-02   6.33739978e-02 ...,
      5.63968047e-02   8.74642581e-02   3.91044728e-02]
   [ -1.20463923e-01   3.23438421e-02  -3.41393985e-02 ...,
      2.99836136e-03   3.13035846e-02   3.08548845e-03]]

  [[  7.04461113e-02  -1.20110298e-02  -1.05569744e-02 ...,
     -7.00806081e-02  -3.51914205e-02   1.01679247e-02]
   [  2.73974445e-02   1.65418407e-03  -3.52706015e-02 ...,
     -2.45954022e-02  -4.61114384e-02   3.20704691e-02]
   [  4.73745689e-02  -7.72844404e-02  -2.49288529e-02 ...,
      7.88338296e-03  -8.11022893e-02   1.57362819e-02]
   ..., 
   [  4.44614403e-02   4.40928042e-02  -3.58740464e-02 ...,
     -8.01598281e-02  -4.19049039e-02  -3.52989906e-03]
   [  5.24053797e-02   4.90048788e-02   5.50060123e-02 ...,
      7.31095523e-02  -3.90239283e-02   3.42668369e-02]
   [  8.39788169e-02   1.20958302e-03  -5.13765775e-03 ...,
      1.44279725e-03  -1.82185310e-03   4.52396236e-02]]

  [[ -1.05783209e-01   3.92513201e-02   1.68030933e-02 ...,
     -4.47586365e-02   2.45784204e-02  -8.09445605e-03]
   [ -9.22625065e-02  -6.03962876e-03   1.46493381e-02 ...,
     -3.14317532e-02   9.60101653e-03  -4.42429595e-02]
   [ -4.74300189e-03  -4.76189367e-02  -3.14870328e-02 ...,
     -5.95764294e-02  -5.30892685e-02   6.44731671e-02]
   ..., 
   [ -3.99218738e-01  -6.77011237e-02   9.48421955e-02 ...,
     -6.35540783e-02   4.64323387e-02   3.79127520e-03]
   [  6.32198751e-02  -5.69612486e-03  -1.04416041e-02 ...,
      2.88570914e-02   3.16796824e-02   3.30149606e-02]
   [  8.25744718e-02   1.98827647e-02   2.35408284e-02 ...,
     -5.19536436e-02  -4.76671644e-02   4.84356172e-02]]]]
model/bias_2:0
[-1.67930746 -1.28692663 -1.76282287  1.98446965 -0.83858359 -0.5957582
 -1.28465176  0.1590793  -1.67004418  0.04821049 -0.76106465 -0.36878806
 -3.26014113 -3.27764487 -0.40006757  0.15472834 -1.24457741 -0.11236365
 -1.50352728 -1.3580606  -2.21593189  0.75968534 -2.33870149 -0.27607048
 -0.83520746 -0.36057013 -0.12488785  1.1728797  -1.41757858  0.42678371
 -0.98176444 -0.38756907 -0.99078727 -0.6713081  -1.58606577 -4.08468533
 -1.34449697 -0.21379495 -0.62266606 -1.13267648 -1.57540858  0.1070078
  1.12294817 -0.62157375 -1.0026319  -1.03431058 -2.2658658  -1.63709974
  0.97529447 -0.04109881 -0.88644636 -2.09328532  0.77875137 -1.49523103
 -1.36928725 -1.06575632 -0.45352     1.37265849 -1.25555444 -1.06763518
 -0.77906793 -4.32417679 -1.19028842  0.35300094]
model/scale_2:0
[ 3.52643394  2.54015875  3.05990934  1.48872781  2.68603587  3.34238172
  2.2778585   3.3033371   3.14967823  1.74898899  2.60613751  2.12264109
  3.50072646  3.74251556  2.06783533  2.15762424  2.78647971  3.89407396
  2.58200169  2.3648324   3.38145018  1.01190853  4.43625498  1.91559565
  3.24137235  1.60879374  3.4412117   1.72536898  2.15863132  2.44809389
  2.05131721  1.61598074  3.3483541   2.69634771  2.88507485  2.29369569
  3.12775087  3.08763838  2.76197553  2.37238216  2.83249497  1.19017386
  1.78017759  2.54882145  2.80027175  2.15210009  4.36343098  2.46225452
  1.50081396  1.69703031  3.28477716  2.75745368  1.35833859  2.17818356
  2.88708973  2.41176462  1.89166737  1.67311001  2.51319408  2.26232862
  3.67950368  2.89075327  2.38295364  1.48250318]
model/mean_2:0
[-3.18422651 -2.1335094  -2.05623698 -6.84998417 -2.07568955 -2.31021738
 -1.83572102 -2.69262934 -2.80483556 -6.23113966 -1.10054064 -1.75905502
 -3.47642374 -2.40125084 -0.80559194 -2.35731721 -1.55505788 -4.57066059
 -1.77161479 -1.10908091 -2.83628249  3.7295897  -0.66309619 -1.44178891
 -1.39720321 -3.21771789 -1.84301591 -1.43840039 -3.42568374 -7.13074207
 -1.92380059 -1.86357784 -0.19181788 -3.11371732 -1.45544291  9.14514446
 -1.55796146 -2.17198825 -4.61446333 -1.29323924 -2.39772201 -2.32570624
 -0.87749434 -4.158638   -2.06168079 -2.56410027 -3.40634727 -1.1201334
 -6.09131575 -0.71100932 -0.93596244 -0.59445846 -6.07836676 -0.40676868
 -1.82171547  0.12316921 -0.53116    -1.25909781 -2.00502133 -2.3513937
  0.40948865 -0.48368931 -2.25679946  0.35476711]
model/variance_2:0
[ 11.27785492   8.41586304   8.62077236   6.77077484  10.26759338
  12.82895756   6.31570482  15.09344769   7.28934813   3.42976522
   7.7053256    3.31787086   3.50867152   5.05686378   2.87017679
  10.1581049    9.1419096   19.86916924   6.87047195   5.48241186
   6.92540121   7.27670145  14.6769743    3.24766111  11.70466232
   2.75398278  15.57763863   1.50635874   7.13963318   8.30626392
   6.06936407   8.93002892  15.78256416   9.91554737   8.93417454
   5.66983891   8.01110554  12.3873806    9.11970329   8.17923164
   8.16661549   4.520257     1.70672095   7.04825354   8.09329796
   4.50272465  15.32838821   4.78136349   6.12416601   5.91827726
  13.43145561   6.09911776   5.55962086   4.22909832   6.38934708
   6.16634035   3.49864769   1.49609613   7.90141249   3.99482751
  18.84172249   6.04451513   6.86049271   6.04103374]
model/conv_3:0
[[[[ -6.67067319e-02  -1.45009207e-02  -1.87578890e-03 ...,
      8.82441550e-02   4.01434675e-02  -1.66806951e-01]
   [  8.34776368e-03   5.75307757e-02   2.58143246e-02 ...,
     -2.51001623e-02  -4.37520668e-02   5.42727038e-02]
   [ -1.96725447e-02   1.70075689e-02   4.28976007e-02 ...,
      7.78207835e-03  -7.85039067e-02   5.62016945e-03]
   ..., 
   [  1.14370557e-02  -1.52201597e-02   5.79787567e-02 ...,
     -2.78052799e-02  -6.53109699e-02   1.19636394e-02]
   [  3.25788893e-02  -3.99691686e-02   5.23444265e-03 ...,
     -7.15134516e-02   7.61264265e-02  -5.58312312e-02]
   [  4.06976417e-02   2.56016403e-02  -3.57449427e-02 ...,
      8.30455311e-03   8.40031356e-02   3.61492159e-03]]

  [[ -7.47245029e-02   7.32893939e-04  -8.76076221e-02 ...,
     -8.12964700e-03  -1.52876765e-01   8.69299173e-02]
   [  4.73584756e-02   6.79303557e-02   3.39891426e-02 ...,
     -1.12503961e-01   1.82603416e-03  -2.02663820e-02]
   [ -5.60260937e-02   6.57728165e-02   2.13170871e-02 ...,
      6.20133504e-02  -7.29762912e-02   2.69678218e-04]
   ..., 
   [ -1.34097105e-02  -1.54938415e-01  -1.23654064e-02 ...,
      7.25411484e-03  -3.69849093e-02  -2.01224864e-01]
   [ -1.03645511e-01  -5.85553125e-02  -3.37511711e-02 ...,
      1.00003832e-04   6.65387660e-02   8.96345882e-04]
   [ -3.16899270e-02   4.04048860e-02   2.84471717e-02 ...,
     -2.81389356e-02   1.09809719e-01   4.89242785e-02]]

  [[  1.56609043e-02   7.11595714e-02   4.42819893e-02 ...,
     -8.91759247e-02  -2.53238119e-02  -2.24698242e-02]
   [  1.91102680e-02   1.70833133e-02   3.28819230e-02 ...,
     -3.92236840e-03  -1.61570534e-02   1.34729724e-02]
   [ -2.50496902e-02   5.14576808e-02   1.08524496e-02 ...,
      1.38639230e-02  -1.17905168e-02  -6.71168929e-03]
   ..., 
   [ -1.25649311e-02  -8.67663622e-02   3.81367281e-02 ...,
      5.02875522e-02  -2.95373388e-02  -9.28720981e-02]
   [  3.60449031e-03  -1.97640769e-02  -8.59995279e-03 ...,
      1.89542100e-02   1.57251488e-04   4.01537269e-02]
   [  2.73449272e-02  -6.67625433e-03  -2.21001599e-02 ...,
     -6.34319801e-03   2.95720845e-02  -5.31190075e-03]]]


 [[[ -7.28429556e-02   1.03722744e-01  -4.00989503e-02 ...,
     -3.68069336e-02   9.69953388e-02   3.08321975e-02]
   [ -2.37199962e-02  -8.98742676e-03  -1.47804450e-02 ...,
      1.27310865e-04  -3.36089469e-02   4.03477885e-02]
   [  2.75017181e-03   5.92695735e-02   3.73825580e-02 ...,
      8.09977204e-03  -3.41783166e-02  -2.10148431e-02]
   ..., 
   [ -2.69460697e-02  -5.93682006e-02  -1.56052457e-02 ...,
     -6.23020940e-02  -5.98543063e-02  -4.44811620e-02]
   [ -2.20021065e-02  -4.10107076e-02   1.56662464e-02 ...,
     -3.56849208e-02  -7.08646178e-02  -4.24352586e-02]
   [ -2.40650773e-02  -2.48441845e-02  -3.60311046e-02 ...,
     -4.37551029e-02   1.15753049e-02   2.60590035e-02]]

  [[ -2.76298430e-02   1.84389390e-02  -9.83736962e-02 ...,
     -5.53271808e-02  -9.27427784e-02   4.95494604e-02]
   [  5.04368395e-02   1.39556322e-02   7.57918134e-03 ...,
     -3.84482667e-02   5.52610494e-03  -6.46568164e-02]
   [ -6.87827244e-02   1.06033318e-01   5.12606949e-02 ...,
      9.60941520e-03   2.62440033e-02  -3.67611274e-03]
   ..., 
   [ -2.98652053e-02  -1.36775598e-01  -1.56159103e-01 ...,
     -9.09422114e-02  -6.34415075e-02  -1.96573436e-01]
   [ -1.14388332e-01  -7.96205327e-02   3.39295641e-02 ...,
     -4.45359666e-03  -3.77112511e-03   8.99975821e-02]
   [ -5.33786081e-02  -2.38174144e-02   2.31475886e-02 ...,
     -6.55759573e-02  -1.53185815e-01  -1.39852446e-02]]

  [[  2.17186660e-02   3.73877361e-02   5.28627969e-02 ...,
     -6.37543872e-02  -1.15539404e-02  -5.80722950e-02]
   [ -2.13502459e-02  -6.49786461e-03   1.60237439e-02 ...,
      1.09692344e-04  -1.74360704e-02   2.15251539e-02]
   [ -1.13006774e-02   8.21982026e-02   2.48500276e-02 ...,
     -1.57078430e-02  -2.72873752e-02  -3.70335281e-02]
   ..., 
   [ -3.26667801e-02  -7.52721652e-02  -1.30507434e-02 ...,
     -4.42921929e-02  -6.18896745e-02   6.28317669e-02]
   [ -9.31977853e-03  -5.00386581e-02   1.48190921e-02 ...,
      4.71727271e-03   5.46234548e-02   1.65339317e-02]
   [  3.72943394e-02   2.07202090e-03  -8.98646656e-03 ...,
     -6.72586486e-02  -1.71837658e-02  -3.98984849e-02]]]


 [[[ -4.78370674e-02  -1.93441436e-02  -8.01927447e-02 ...,
     -1.55050591e-01   7.88440369e-03   8.35842192e-02]
   [  1.51938004e-02   2.62486991e-02  -8.67182016e-03 ...,
     -1.06291659e-02  -2.13886350e-02   3.42087001e-02]
   [  3.99606675e-02   4.04775478e-02   8.49819276e-03 ...,
     -9.31067578e-03  -2.10633855e-02  -3.07429712e-02]
   ..., 
   [ -8.29173625e-03  -4.14077416e-02  -2.58982833e-02 ...,
     -6.75916970e-02   2.38251183e-02  -1.69333950e-01]
   [ -2.29195729e-02  -3.91856804e-02  -1.93202496e-02 ...,
     -3.59611101e-02   2.02520490e-02   1.54524427e-02]
   [ -4.39754613e-02  -8.07898305e-03  -8.00071582e-02 ...,
     -2.64432188e-02   4.22198325e-02  -1.89932324e-02]]

  [[ -2.59160884e-02  -4.53927368e-03  -5.01297079e-02 ...,
      4.45545316e-02  -7.90099800e-02   5.71618229e-03]
   [  6.57778382e-02   5.66897914e-02   3.06748971e-02 ...,
      3.80424596e-02   7.35654980e-02  -1.69583838e-02]
   [ -4.82694134e-02   5.95543869e-02   3.87652852e-02 ...,
     -2.34723520e-02   3.36971530e-03   5.44945523e-03]
   ..., 
   [  1.54357310e-03  -8.27533752e-02  -2.80467253e-02 ...,
     -7.14244619e-02  -8.78338665e-02  -2.55299062e-01]
   [ -1.11387677e-01  -1.06204331e-01  -5.37846200e-02 ...,
     -3.75692844e-02  -2.01291256e-02   1.36242686e-02]
   [ -2.52977386e-02  -2.10391022e-02  -5.77188432e-02 ...,
      3.21782306e-02  -5.40287308e-02   1.16961822e-03]]

  [[  2.09888071e-02   2.56730486e-02   1.91196743e-02 ...,
      1.00261651e-01  -2.64403992e-03   2.69984007e-02]
   [  4.19793185e-03   2.09108554e-03  -1.71716679e-02 ...,
     -2.62148716e-02  -3.04254517e-03   2.20232289e-02]
   [  6.21617958e-03   1.28811570e-02  -1.63089251e-03 ...,
     -6.05229586e-02  -7.05242455e-02  -3.28253619e-02]
   ..., 
   [ -7.84292910e-03  -1.62272644e-03   1.13362446e-01 ...,
     -3.54182459e-02  -3.46953422e-02   1.12203121e-01]
   [ -2.82288082e-02  -2.99939495e-02   2.57280972e-02 ...,
      7.80757591e-02   3.79996262e-02  -5.03280237e-02]
   [  2.20541321e-02   1.65961043e-04   4.82432719e-04 ...,
     -5.40231122e-03   4.63090315e-02  -1.51280090e-02]]]]
model/bias_3:0
[-1.47451472 -0.35636884 -0.46441075 -1.63967931 -0.94297564 -1.81051755
 -1.86007583 -1.23445678 -1.18936741 -2.68996906 -1.85628152 -1.94181371
 -1.8280654  -3.80101728 -1.50729275 -0.68876731 -0.51810586 -0.83433193
 -1.22085404 -0.85965347  0.14950854 -2.24590635 -5.60553169 -1.72681022
 -1.49673033 -2.12619281 -1.83018398 -2.85321331 -0.83098322 -0.82232332
 -1.74799609 -1.15402198 -1.21838152 -1.72017121 -1.74745297 -1.18477893
 -2.6772604  -1.30538237 -1.66921628 -1.0771805  -1.77169764 -0.74114394
 -1.82456422 -0.86815572 -1.59948885 -1.23489285 -1.75485182 -0.65600145
 -1.59067249 -0.74311984 -1.50558662 -2.66689348 -1.13134837 -1.10021687
 -1.09391749 -2.14018559 -1.39914513 -1.20625353 -2.52044749 -2.20971918
 -1.45507169 -4.58229542 -3.00814438 -0.94421792 -0.40570977 -2.21407986
 -0.96499956 -2.76123905 -1.37081289 -2.12149954 -3.35883832 -0.98238111
 -0.50145441 -1.09877896 -0.81851226 -0.87982357 -1.42336202 -0.41623509
 -1.40665722  0.21850166 -1.10930467 -1.50528407 -1.2588743  -1.22898614
 -2.13964891 -1.70626509 -2.98629665 -5.18197536 -1.38585877 -2.22501445
 -2.69526553 -0.99690074 -0.69381678 -0.14275923 -1.39008296 -1.39265537
 -1.06119049 -2.1014545  -0.38902399  0.01358641 -1.35979307 -1.14262581
 -1.60562193 -0.63563609 -0.9240638  -1.52339816 -1.05924726 -1.6026473
 -0.89442831 -2.52529287 -1.12588942 -1.5413717  -0.33117461 -2.01671886
 -1.23353863  0.43319789 -1.53099585 -2.82600403 -1.89625955 -1.52853322
 -0.56051975 -1.19706297 -0.8011781  -0.10213561 -2.19706082 -1.13054228
 -2.10360432 -0.57363409]
model/scale_3:0
[ 2.51732683  2.71027613  2.38860226  2.42785835  1.92137682  2.2087276
  2.58122492  3.34828877  2.26858878  2.8483181   2.36673641  2.3130188
  2.59044623  2.7590909   2.44165921  2.60246611  2.2593441   1.57641578
  1.92191553  2.25463319  1.1977849   1.97006667  2.65814638  2.46860027
  2.37001777  2.44458842  2.92769551  3.16145134  1.40494835  1.97557831
  2.24876237  2.10691309  2.25679302  2.01746917  2.31074333  1.4810816
  2.55868459  1.98491859  2.41559529  2.99357367  2.17702627  1.84829319
  2.42668128  1.98923123  2.56522608  1.97697496  1.75266528  2.18638825
  2.3815937   2.27708292  2.19748712  2.89394045  2.18667293  1.31840003
  1.63777614  1.99708128  2.21548176  1.94131887  2.76702046  2.14034963
  2.38882589  3.20203662  3.05942297  1.62701058  1.30160356  2.40661836
  2.09547162  2.50812721  2.25447011  2.34973264  2.54157066  2.22051859
  2.56801105  1.73108149  2.31634617  1.71075845  2.17872381  1.40963948
  2.18502212  2.08516431  2.01835203  3.12690687  1.59383643  1.71176112
  2.33127213  2.05388021  3.57747722  3.00302935  1.95555031  3.05407
  2.5382874   2.22916174  1.89619064  2.48367214  2.50329399  2.05842423
  2.29681993  2.58306313  2.25638962  1.79254329  2.33766437  1.62336791
  2.87222886  1.67986298  2.6207881   2.73342395  1.97067761  2.45850182
  2.07444477  2.98723507  1.60622907  2.44192457  2.36353993  2.27518415
  2.01023507  1.47689319  1.93991756  2.52979851  1.95580733  2.28135443
  2.1936326   2.28859806  2.62195301  1.91192591  2.48536587  2.15658307
  2.32175255  1.86952865]
model/mean_3:0
[ -2.70686722e+00  -9.04721451e+00  -7.28814650e+00  -2.36702299e+00
  -1.30793846e+00  -3.30443788e+00  -3.25171614e+00  -2.61728525e+00
  -2.09648347e+00  -6.97593987e-01  -2.23028946e+00  -1.94075406e+00
  -5.21775633e-02  -3.62181497e+00  -1.35379446e+00  -3.12830114e+00
  -3.58840275e+00  -1.59898019e+00  -2.65022016e+00  -1.72578919e+00
  -5.79715252e+00   3.05633044e+00   2.31785506e-01  -1.73604584e+00
  -1.33946753e+00  -9.81720030e-01  -1.92797244e+00  -1.52365804e+00
  -1.57939315e+00  -2.70563483e-01  -2.33034539e+00  -3.10283971e+00
  -2.18841100e+00  -1.97191930e+00  -3.07381892e+00   7.25083810e-04
  -1.11023819e+00  -3.03332329e+00  -3.86031723e+00  -4.78122187e+00
  -3.19048786e+00  -1.70017982e+00  -1.87085545e+00  -1.68942666e+00
  -2.96268892e+00  -1.57015932e+00  -6.29382849e-01  -3.86324954e+00
  -2.32811928e+00  -2.29037380e+00  -2.18533397e+00  -2.42470789e+00
  -8.96599948e-01   1.98090708e+00  -7.07154930e-01  -5.69978571e+00
  -2.65531659e+00  -2.22156239e+00  -1.42350328e+00  -2.00660634e+00
   4.31741858e+00  -2.51002073e+00  -2.39091158e+00  -1.79046559e+00
  -7.70030737e-01  -2.71988249e+00  -1.17339909e+00  -1.18964362e+00
  -1.74612749e+00  -2.19773054e+00  -6.83190703e-01  -2.49924970e+00
  -2.38258314e+00  -4.58993721e+00  -6.78154528e-01   6.48556805e+00
  -2.44805074e+00  -7.70858288e-01  -1.48716176e+00  -3.05040622e+00
  -4.65170108e-02  -3.20652676e+00  -2.01990962e-01  -2.43219733e+00
  -2.11267519e+00  -7.00467062e+00  -1.98368728e+00  -2.31837583e+00
  -1.99002266e+00  -2.27305746e+00  -1.63326561e+00  -1.60109150e+00
  -6.85409307e-01  -3.84383750e+00  -2.73791552e+00  -7.69219041e-01
  -1.62562561e+00  -1.66034234e+00  -6.17051601e+00  -2.14550543e+00
  -2.76963973e+00   5.87192869e+00  -1.83349490e+00  -1.26881492e+00
  -3.56339622e+00  -3.99490905e+00  -2.09916782e+00  -3.15151572e+00
  -2.95793080e+00  -4.61966813e-01   1.00803100e-01  -2.24826789e+00
  -1.97773445e+00  -2.63637590e+00  -3.91631341e+00  -1.28706813e+00
  -1.55095172e+00   3.28783894e+00  -2.69831014e+00  -1.81966615e+00
  -6.31908476e-01  -2.57469273e+00  -2.51456118e+00  -4.02879190e+00
  -2.41245484e+00  -3.80589867e+00  -5.02405548e+00  -4.65812874e+00]
model/variance_3:0
[ 11.42844009  23.90922737  13.87201595   6.92283058   5.38380051
   6.05276346   8.73299313  14.76631451   7.39938211   7.47164059
   6.30011272   4.87428713  12.84882832   5.56939554   5.5359292
  10.67269421  15.53931999   7.15941811   6.49636412   7.72581911
   5.16029501   4.33381176   3.18892407   5.66365528   7.29501534
   5.23170996   9.17932224   9.52967358   5.18496418   6.19965935
   4.2432003    7.93538618   9.53835392   4.60549212   5.15583897
   5.00551081   4.59625912   5.17766666   5.95018148  20.43496513
   6.05516624   5.68358088   6.99277258   6.63447571   6.19441462
   8.01141357   4.82605839  13.16158295   6.04705906   6.15278912
   6.5115304    5.54653788   5.83659363   8.06273556  11.07881546
   5.33072662   8.10640907   4.6841898    6.31282043   3.45803261
   8.38018131   5.77789545   7.50523758   4.23776913   5.06611776
   7.52722788   7.14900589   4.58062506   7.26721811   5.72540426
   4.47743511   8.83330727  21.6398735    8.01583672   9.9635334
  13.57746696   7.33062601   5.46987867   7.42737436  12.61687946
   5.72646809  12.26700592   8.97592735   4.44124556   5.42196989
   4.19925928  10.00480175   3.92426276   4.3852725   10.63023853
   4.46322584   9.17816162   6.33572674  11.93488026   7.88594103
   5.31733847   7.0895853    4.75898361  12.81894493  10.79971027
   7.14778614   3.40770078   9.83648586   3.07916284  12.05372238
   7.48979664   5.77774715   7.06692266   8.12169361   6.37306881
   3.81378531   6.65040207  16.10474586   6.45738125   8.33596325
  11.23337173   6.12748289   6.68176842   5.52841091   6.75538683
   9.07822895   6.90051174  12.16346836  14.74143982   5.14504814
   8.03678799   6.17085886   5.71895552]
model/conv_4:0
[[[[ 0.00701349  0.0127974   0.01049858 ...,  0.03114082  0.03464898
    -0.00799199]
   [-0.06377994 -0.04267263 -0.00818194 ..., -0.03154427  0.01015715
     0.01090902]
   [ 0.0057397  -0.01061     0.01560271 ..., -0.01378714 -0.07952913
     0.02427221]
   ..., 
   [ 0.03851757  0.02712135 -0.04504149 ..., -0.01296759 -0.01998935
     0.03554113]
   [ 0.01727667  0.02631193 -0.02223189 ...,  0.02988242 -0.01945696
     0.0190016 ]
   [ 0.01494976 -0.00173473  0.04075409 ...,  0.01371194 -0.00904681
     0.02138265]]

  [[ 0.00790177 -0.00348669  0.00623799 ...,  0.0544036   0.00272477
     0.02363506]
   [-0.01514585 -0.07301451 -0.0217036  ..., -0.02075572 -0.01368858
    -0.00581548]
   [ 0.03040348 -0.01090142  0.01075131 ...,  0.01652653 -0.02270023
     0.01974346]
   ..., 
   [ 0.10269093  0.04116631 -0.02349591 ..., -0.02866099 -0.00432761
     0.0572779 ]
   [-0.00679489  0.03919181 -0.00743154 ...,  0.02536372  0.02658247
     0.01928722]
   [ 0.03392119 -0.03244102  0.05214039 ...,  0.04851533 -0.00482765
     0.01252698]]

  [[-0.02784581  0.00019832 -0.01144788 ...,  0.03047219 -0.01499609
    -0.00492963]
   [ 0.10578465 -0.03185465 -0.00098203 ..., -0.01957009 -0.0087001
     0.01734205]
   [ 0.03092782 -0.01605374  0.00088735 ...,  0.01245952  0.01828925
     0.01863974]
   ..., 
   [ 0.04721109 -0.00321039 -0.02842127 ..., -0.0198702   0.00545624
     0.02109231]
   [-0.05871443  0.0167698  -0.01700054 ..., -0.01119647  0.00631963
     0.01417899]
   [ 0.02337727 -0.01190065  0.0019166  ...,  0.02138065  0.03676149
    -0.00973711]]]


 [[[-0.02845626 -0.00465516  0.02027684 ...,  0.01667815  0.04952594
     0.02573683]
   [-0.07475241 -0.05233638 -0.02126599 ...,  0.02797898  0.01036307
    -0.02926054]
   [-0.02626019 -0.01406782  0.02898049 ...,  0.02379473 -0.13788791
     0.00574642]
   ..., 
   [-0.04745435 -0.01872811 -0.04667039 ..., -0.0281475  -0.0021887
     0.00819383]
   [-0.02679434 -0.02287226 -0.00840492 ...,  0.03318706  0.01854436
    -0.00798615]
   [-0.0017449  -0.01926874  0.01755134 ..., -0.00412628 -0.01377895
     0.00276926]]

  [[-0.02276845 -0.07264813  0.01772767 ...,  0.06200213  0.02161529
     0.08262411]
   [-0.154465   -0.08426872 -0.02738292 ...,  0.04048736  0.00210136
    -0.03877191]
   [-0.01560752  0.01580901  0.00709893 ...,  0.08898716  0.0244736
    -0.04140547]
   ..., 
   [-0.00556222 -0.07205299 -0.06643362 ..., -0.02666852  0.024371
    -0.04566636]
   [-0.01881976 -0.01561312 -0.02624414 ...,  0.09231834 -0.00652338
     0.02949305]
   [-0.04355607 -0.01204969  0.06110451 ...,  0.00462193  0.00069819
     0.03032624]]

  [[-0.00265172 -0.00028979  0.00264934 ...,  0.0030545  -0.02785126
     0.01810844]
   [-0.0082987  -0.0482775  -0.02915084 ..., -0.01353361  0.01448996
    -0.02221727]
   [ 0.00560431 -0.03466891  0.02542311 ...,  0.02474765  0.04056158
    -0.00806475]
   ..., 
   [ 0.08085978 -0.03935751 -0.03824196 ..., -0.03643962  0.04086454
    -0.01462222]
   [-0.00042966 -0.00673734  0.00405951 ..., -0.02580604 -0.00861729
    -0.00842472]
   [ 0.01490481 -0.04037116  0.01573016 ...,  0.01252444 -0.00391497
     0.08587504]]]


 [[[-0.04158292  0.02561325 -0.01048315 ...,  0.00955048  0.02790715
     0.05060918]
   [ 0.01485423 -0.03127041 -0.02237563 ...,  0.01199695  0.01934542
     0.02462785]
   [-0.01382633  0.03261329  0.02230008 ...,  0.00121969 -0.01872455
     0.00309759]
   ..., 
   [-0.00509505 -0.00929542 -0.02852762 ..., -0.01871834  0.01107054
    -0.00051652]
   [-0.01063199 -0.02316912 -0.00571292 ..., -0.0006278  -0.00116719
    -0.01534354]
   [ 0.01044594 -0.01770938  0.03449048 ..., -0.00643094 -0.00159627
    -0.00563842]]

  [[-0.00032897 -0.00980418  0.03836452 ...,  0.01196518  0.00082167
     0.02911196]
   [-0.01449585  0.00728511 -0.01840445 ...,  0.0029569   0.00256484
     0.00237642]
   [-0.00614728  0.08630678  0.03887071 ..., -0.01855863  0.0399972
    -0.00959179]
   ..., 
   [-0.02470082 -0.00070635 -0.07111974 ...,  0.03099202  0.01248724
     0.00532884]
   [-0.03577345  0.00214939 -0.0007034  ..., -0.00403549  0.01418943
     0.01368431]
   [ 0.00255844 -0.01102927  0.02489504 ...,  0.00058708 -0.00264328
     0.07446742]]

  [[ 0.03801158  0.0039082  -0.01337826 ...,  0.02361987 -0.02596255
     0.04270379]
   [-0.00717585 -0.02052462  0.0130198  ...,  0.01017568  0.01448326
     0.01311596]
   [-0.04366661  0.00453786  0.04244294 ...,  0.00842419  0.04344953
     0.01546299]
   ..., 
   [-0.00542569 -0.04188299 -0.04030631 ..., -0.02128171  0.01780877
    -0.03728456]
   [-0.02436883 -0.00631868  0.002033   ...,  0.00965689  0.02709012
     0.0009732 ]
   [-0.00806809 -0.01052262  0.02590002 ..., -0.02059275  0.01502137
     0.04737773]]]]
model/bias_4:0
[-2.6401062  -2.15188599 -1.31708825 -1.69448364 -1.20551848 -2.74233866
 -1.59717095 -1.81018972 -2.13469243 -1.31378937 -1.42439783 -2.95033383
 -0.90884769 -1.76171184 -2.57948589 -2.25867701 -1.6705029  -1.21887612
 -2.4067626  -1.73131204 -1.5858351  -1.0264585  -1.22285819 -1.51453757
 -2.69401574 -1.50783968 -2.83147383 -0.25978661 -2.90857363 -2.19453311
 -2.25410628 -1.24781847 -0.90792012 -1.65189946 -4.90773487 -2.32236385
 -1.0448581  -2.51675677 -0.02745261 -2.99039173 -1.08513737 -1.96490657
 -2.01712751 -1.74296916 -2.14886403 -1.40329373 -2.25660229 -1.26919341
 -1.62416577 -1.26687098 -3.06533933 -1.45473742 -2.02960491 -1.07582259
 -1.34201562 -1.40904021 -1.09375072 -1.21049833 -2.04179311 -1.56489849
 -2.86212111 -2.9387536  -2.58328056 -1.98455286 -1.43007565 -2.42191553
 -2.03500247 -2.56684899 -1.51017761 -4.70778275 -2.16464758 -3.47405195
 -1.69477129 -2.32345533 -3.13611889 -2.09764481 -0.95345765 -1.19002247
 -1.27850485 -2.37212181 -1.70776772 -2.44746399 -1.59290385 -1.5501281
 -1.51394212 -1.9220084  -0.99600518 -2.65487552 -1.94790351 -1.06817639
 -1.1407752  -1.40555584 -0.60242617 -1.42884254 -0.25459963 -2.45683479
 -2.62027025 -1.58455205 -1.32687509 -1.23959684 -1.77092648 -1.90106845
 -2.19359303 -1.76574326 -0.82248259 -1.2306751  -1.05534363 -1.59222686
 -1.25607729 -0.67453855 -0.82802594 -1.92010319 -1.32935846 -1.10885298
 -1.38455379 -2.0041821  -0.79551959 -4.3583703  -1.86148977 -2.2875309
 -1.90075183 -0.81165075 -2.05544186 -1.23359454 -3.13271379 -1.68218899
 -1.42274475 -1.90808165 -1.8715899  -1.46665001 -0.85545135 -2.43615055
 -1.3664223  -1.6580441  -2.52085018 -1.9462676  -1.52047086 -1.89179921
 -1.07159567 -2.71194148 -1.12257445 -2.31343699 -1.61588478 -4.4422102
 -1.49303114 -1.86749125 -1.90694642 -2.67974782 -2.34203792 -1.14867878
 -0.40470946 -1.85478973 -1.45149708 -3.21561933 -0.12287694 -1.47105002
 -1.42905259 -1.37196672 -1.54816389 -1.39973617 -2.59034228 -1.06911147
 -1.25314176 -2.85914969 -1.18212283 -0.78574711 -3.30073333 -1.39620841
 -1.65749669 -2.73311377 -1.55910993 -0.91361529 -4.24130821 -1.83331728
 -1.43402076 -1.25421929 -4.04294443 -2.52854252 -1.42736006 -2.0019908
 -1.515733   -1.52384949 -2.51648474 -2.73200583 -2.58066368 -2.48352766
 -1.87659991 -1.66580546 -2.53818774 -1.67888248 -2.53561139 -1.67951858
 -0.59323108 -0.78416842 -1.96532178 -1.90432489 -2.45881724 -3.14765549
 -0.63504851 -1.35349953 -4.28788948 -1.96685016 -2.52905846 -1.03369355
 -0.84363532 -3.1556232  -1.84423399 -1.61254811 -0.79773551 -1.00099456
 -1.98628175 -1.38743782 -1.46759617 -2.11175942 -0.02041286 -1.15606892
 -0.79781735 -1.19530344 -3.49839616 -0.90743703 -1.37281394 -2.58962393
 -2.02239418 -1.34187317 -0.99011791 -1.40939867 -1.35487533 -1.64011741
 -1.737674   -1.39148271 -1.45186341 -1.23514748 -1.92371213 -2.53793001
 -1.46557164 -2.37037826 -1.15957415 -3.26669335 -1.92467427 -2.4208765
 -1.19362688 -2.8826232  -2.0997591  -0.92170739 -1.68043613 -0.93024337
 -2.32578278 -1.93291306 -0.56984037 -1.46577799 -0.42593598 -2.06813264
 -0.59083277 -1.14468873 -1.41382039 -1.41219187]
model/scale_4:0
[ 2.09990835  1.73197329  2.25127888  1.73553133  1.68151128  2.29363513
  1.47745085  1.72354305  1.87943566  1.85460758  2.07582402  1.94545209
  1.92361689  1.76933181  2.35264444  1.78376436  1.66221201  1.7459234
  2.33728719  1.61230183  1.81146955  1.61110711  1.63898981  1.90864384
  2.12486625  1.76020551  2.13198495  1.59553981  2.15607023  1.77242661
  2.11787128  1.87950063  1.55092537  1.7137835   2.57556105  1.89986551
  1.65169168  2.19723296  1.58029437  1.88327301  1.71283317  1.85324883
  1.58216536  2.02464271  2.15817738  1.7751348   2.25761604  1.50671387
  1.67630899  1.74715853  2.12075996  2.0514617   1.99711406  1.28367972
  2.33943152  1.68602467  1.75707567  1.58317006  2.16630173  1.61971998
  2.57537842  2.3720057   1.86990118  2.15959477  1.97174835  2.53938174
  2.2133081   2.20271993  2.02328753  2.67384553  1.65095282  2.44547009
  1.97596598  1.74111915  2.0713768   1.75083601  2.0534091   1.75013876
  1.901546    2.186584    2.2977283   2.44104505  1.5728817   2.14500856
  1.5527693   1.9702599   1.5452652   2.56752968  1.86279345  1.697541
  1.87309086  1.76007318  1.37261152  1.84208143  1.62877405  2.24268723
  2.54901743  1.64053297  2.29818201  1.89997637  1.70538747  1.68302429
  1.64526677  1.80521679  1.68010402  1.85333323  1.58216739  1.64807153
  1.68124759  1.93400419  1.02673674  2.17215109  1.84901178  1.33216572
  2.23702145  1.83394635  1.48779142  2.44122744  2.09085941  2.33624244
  2.2141118   1.53879106  1.69596493  1.66994596  2.50623655  2.10066128
  1.67723334  2.45619202  1.91468966  1.77245188  1.62830424  2.33153176
  1.64646447  1.67154706  2.36387944  2.16051292  1.92157519  1.75321019
  1.44456947  2.08711147  1.80745184  1.99066758  1.84160185  2.39353442
  1.80362487  2.0239296   1.54131985  1.97676241  2.57368422  2.40565395
  1.31227887  1.77548087  1.51071262  2.48882318  1.46335995  1.80339956
  1.41082299  1.81436944  1.60444832  2.04359388  2.27676344  1.70480561
  1.48361492  2.16607785  1.57687891  1.70431697  2.1261797   1.61741328
  1.92471242  2.27798462  1.94111514  1.83428288  2.71269512  2.39123464
  1.78118217  1.96334052  2.60775518  2.05957556  1.88497436  2.00088763
  2.0444591   1.45768213  1.78583896  2.15814972  2.3781991   2.37245369
  2.18938375  1.97382927  1.96449947  2.03972912  2.22761011  1.50461864
  1.69088459  1.69090033  2.20325232  1.84262753  1.85993004  2.32082939
  1.37535679  1.59885883  2.441046    2.16231656  1.87009096  1.72631347
  1.3698895   2.50489211  1.78543925  2.05967617  1.60598314  1.63110101
  1.74466586  1.37076688  1.7682128   1.93285179  1.57957506  1.52907598
  1.2843405   1.37575436  2.78445101  2.40327549  1.87228346  2.32674074
  1.44389415  1.62270522  1.69591415  1.96312559  1.78785598  2.08650208
  1.82174444  1.7186774   1.70723057  1.79418135  1.76345825  1.81605375
  2.04056406  2.27265453  1.76136231  2.28224778  2.09409952  1.92237473
  1.52885699  2.25896168  2.03909993  1.77044618  2.02594519  1.8097465
  2.24645615  1.5919379   1.78797328  1.92985964  1.04343045  2.05074263
  1.41898835  1.43925476  1.73820639  1.8201344 ]
model/mean_4:0
[-2.11813951 -1.49942207 -2.66992831 -0.95173568 -1.94923031 -1.15462887
 -1.38078046 -2.47616363 -1.01888037  0.71001291 -1.33454144 -1.52817512
 -2.48670125 -1.57065964 -1.97439325 -1.79669964 -1.46906114 -1.2617557
 -1.08521187 -0.37723824 -3.342803   -0.37977174 -1.7970885  -3.41827011
 -0.83061659 -1.58086669 -0.9052521  -0.13464117 -1.32403898 -2.16652417
 -1.06584942 -4.22996998 -0.86263609 -0.57113868 -3.79674578 -2.7945683
 -0.59911203 -1.28718936 -1.41556728 -0.9374035  -3.13327813 -2.35262012
 -1.34479344 -0.61517233 -1.95432663 -1.26939321 -1.3584466  -2.99262333
 -2.10965109 -1.16307652 -2.99478626 -1.27761853 -0.59750986 -0.99580675
 -2.55341077 -0.70803255 -2.01099634 -0.48146448 -0.56779838 -2.5117662
 -1.74942446 -3.36261725  5.49108744 -0.61030501 -2.21687746 -1.02023363
 -1.96447909 -1.07606232 -1.58667982 -3.71161795 -1.19547808 -2.29579401
 -1.85886729  2.8169446  -2.4101522  -0.0218546   0.43522939 -1.63960302
 -1.47888935 -2.80414128 -2.45156097 -2.00039458 -2.25099969 -0.73969322
 -1.34868586 -1.88586903 -1.08434391 -3.81353545 -2.54964566 -0.97056478
 -0.92188531 -0.75851631 -0.06471538 -1.16780734 -4.40524673 -1.16101968
 -0.43511707 -0.31653652 -0.58942652 -1.9599297  -1.39020658 -2.22466803
 -1.94497895 -2.15985513 -1.99800837 -2.44482732 -1.66991282 -1.46440339
 -2.07383537 -2.59794831 -0.07147472 -0.56386393 -1.6911819  -0.94168371
 -2.6021533  -4.42658138 -0.90168476  0.39995313 -1.90184927 -1.83740795
 -1.28403282 -1.76961648 -2.54995942 -1.63754499 -1.42302752 -1.74031556
 -1.96825135 -3.49797368 -1.78547812 -2.48093033 -1.62136269 -1.85934937
 -0.92009515 -2.06884813 -1.17984104 -0.84829777 -1.83644509 -1.17771637
 -1.08632243 -2.14020157 -2.70788002 -0.86930436 -0.95757556  0.80027407
 -2.17354822 -1.13965213 -1.2455287  -1.06088316 -1.13643181 -2.99601626
 -0.79550433 -1.73227835 -2.37666631 -2.70752883 -1.01065636 -0.86900622
 -0.70504844  0.70241797 -2.0488708   1.93470836 -1.67189968 -1.75740278
 -2.63376927 -1.1151408  -1.64808106 -1.10383523 -2.72884178 -1.5949769
 -1.7231189  -2.12583232 -1.44579792  1.54113019 -2.99773407 -1.35513079
 -1.85757434 -2.46113753 -1.48736036 -1.98376226 -1.38323736 -1.77352464
 -1.74920785 -1.3085407  -1.1713593  -2.94342542 -1.29485452 -1.11275744
 -2.09189773 -1.82623506 -1.90055895 -1.97765982 -1.25119984 -2.04014611
  0.05170896  1.07930291 -1.37359571 -1.27491152 -3.17353368 -1.6310842
 -1.14379871 -1.52335453 -1.64294088 -2.43886757 -1.64622974 -3.05898643
 -2.01413083 -1.5655942  -1.53584123 -1.94387674 -3.68477726 -1.88253045
 -2.36920071 -1.66415703 -2.43874073 -2.24657249 -2.66053224 -1.1963464
 -2.93867111 -2.27571344 -0.87836862 -2.02228808 -1.44626188 -2.53429747
 -2.03953457 -2.46031809 -1.53968644 -2.74003863 -2.86691833 -2.24260259
 -0.24478889 -3.11779833 -1.5715481  -1.88290882 -1.047948   -2.14212775
 -1.92869306 -2.72733927 -3.66413951 -2.0623095  -2.55801249 -0.68223548
 -2.4447341  -1.29348516 -2.09537029 -1.17486823 -1.30380535 -3.12601376
  0.23766461 -0.39543113 -1.90735877 -1.58819354  0.66476381 -1.42011786
 -0.40659446 -1.49974072 -1.49464393  0.70443159]
model/variance_4:0
[  3.39853072   3.03256345   4.47111368   2.94055724   3.62052011
   2.98334432   2.56229973   2.90914607   2.92448378   3.92261147
   6.91551876   2.92960453   8.38160801   3.80204391   3.85484457
   2.33754802   2.92848849   5.37404776   4.02493572   3.21763659
   3.9963429    3.71960688   3.52544856   4.94067335   3.00420761
   3.4822526    2.70999193   5.41110945   2.65195537   4.39549017
   2.92890787   6.41213131   3.408674     3.59667683   2.74233413
   2.88324237   3.55471873   3.32549572   5.14112234   3.71218133
   4.192729     3.69813657   2.9048779    4.03491163   3.71834731
   3.65973496   3.83318329   3.44469786   3.28624511   3.51658726
   2.77703786   5.5861764    4.442626     2.51267958  10.79906559
   4.40922976   4.72173738   4.40687513   3.8925457    3.12201262
   4.16376066   4.66569185   6.16440392   3.17090702   4.4662714
   5.24752378   4.98622561   2.73839498   4.57982254   4.42056704
   2.77250481   3.66636324   4.51284456   2.20393252   3.24143267
   2.59196997   5.43244553   3.80015111   4.26718569   3.2185173
   6.50680923   6.10099697   2.53902745   4.32514286   2.87945056
   3.78003597   2.36015701   4.67686796   3.47337103   3.34402943
   5.21686316   3.43770981   4.74159718   3.53383231   7.05970144
   3.34100366   4.15799713   2.96097088   5.55879498   4.48049355
   3.07192111   2.53643012   1.54601979   5.07194042   4.58554602
   5.44244003   3.44251895   2.97426319   3.41561842   8.34984493
   2.02227044   4.68875742   3.80985975   2.49699378  10.29499912
   4.61734486   3.53949761   3.44671965   4.50504398   4.73638344
   4.03904963   3.85576725   3.37859082   4.11487532   3.61806226
   3.91289544   3.64850092   5.82266331   3.66086102   3.19974566
   4.65230656   4.19285393   3.22476435   2.52639413   3.67574286
   4.38186693   3.49139285   3.24203682   3.42211723   3.65402269
   4.73662376   2.80705428   3.71870208   2.74911427   3.09431958
   4.68516064   3.08650422   2.96956778   5.13484287  10.08338451
   2.99281573   3.07344055   2.79249716   4.09222555   4.72322607
   2.87886739   2.24178815   3.48670363   2.746737     4.61430836
   3.30120444   4.27547312   3.69460297   2.60680079   2.32146001
   4.19912577   2.93046308   3.3797338    4.15222979   3.67604446
   5.03402042   4.42349815   3.14162064   4.60605097   4.053267
   5.51338434   2.80328226   3.15324759   4.64903164   3.42490435
   4.30405426   2.25115156   2.07887697   3.84486103   3.87635064
   3.8670814    4.46192026   3.54858851   3.2693038    4.55810213
   2.95926189   3.34097385   5.62569809   6.71489048   3.83885884
   2.52682114   4.33703327   3.10527754   3.33901167   2.69141722
   2.54984856   3.67001677   2.41387463   3.59624648   3.07905364
   3.54902506   3.85862756   4.95957136   5.24291897   3.01493335
   2.9602313    2.36796594   4.28373861   3.46207905   6.32967377
   2.27039409   6.00634241   2.80660534   2.98850107  11.16584682
   4.43179941   4.61871004   1.70229876   3.61663008   4.57260656
   5.54695749   5.53695965   3.80143142   4.00643921   4.04673862
   3.66905427   4.29161072   3.42659307   2.45976663   6.32364702
   3.75766444   5.94396973   3.58871293   3.5988276    2.89769983
   3.90413523   3.13525176   4.17804241   4.59173584   3.78950787
   5.14772558   3.76220846   2.83269048   8.96918106   5.03558016
   2.10539103   3.93324351   4.08071518   3.60659981   2.96070409
   5.32300425]
model/conv_5:0
[[[[ -2.18099691e-02  -2.95641646e-02  -1.53076285e-02 ...,
     -2.26613856e-03  -3.62234525e-02   1.63357183e-02]
   [  2.12794077e-03   1.37935588e-02   1.10987276e-02 ...,
     -2.09458694e-02  -2.02641897e-02  -1.64374784e-02]
   [  2.91544348e-02  -3.68378428e-03  -3.94621026e-03 ...,
     -3.23272473e-03   9.71937552e-03   1.48824230e-02]
   ..., 
   [  1.88471237e-03  -1.87737569e-02  -1.67642683e-02 ...,
     -1.90337840e-02   3.40379551e-02   1.87363960e-02]
   [ -3.32801789e-02  -4.57548462e-02  -2.70296540e-02 ...,
     -7.97155686e-03  -3.47731728e-03  -1.44438790e-02]
   [ -1.77605934e-02  -5.14697051e-03   2.44968086e-02 ...,
     -7.29092862e-03  -3.35291773e-02  -2.42630076e-02]]

  [[ -1.18519766e-02  -3.48655996e-03  -2.83894353e-02 ...,
     -3.63765657e-02  -1.68840885e-02   8.06029886e-03]
   [  5.72260842e-03   2.46609524e-02  -1.07618719e-02 ...,
      1.48933614e-02  -8.83906242e-03  -7.22399401e-03]
   [  1.37897516e-02  -6.55913353e-03  -1.60236806e-02 ...,
     -1.79764237e-02  -1.73112862e-02  -5.98890102e-03]
   ..., 
   [  4.35264083e-03   1.63909215e-02  -3.29649518e-03 ...,
     -4.70037013e-03   1.04131903e-02   3.02212033e-02]
   [ -1.23294361e-03  -4.01362814e-02   6.50778925e-03 ...,
     -9.27642453e-03  -7.52884708e-03   2.63297595e-02]
   [  1.48948114e-02   3.46933492e-03   1.10225845e-02 ...,
     -1.24648018e-02  -1.67613067e-02  -3.34866866e-02]]

  [[  1.40748154e-02  -3.35384607e-02   1.13713015e-02 ...,
     -1.25187300e-02   3.81329432e-02   2.08192766e-02]
   [  1.51801985e-02   2.36595739e-02   1.87925063e-02 ...,
     -1.19285248e-02  -2.54974719e-02  -1.17013222e-02]
   [  3.19013298e-02  -1.50340442e-02  -2.26773079e-02 ...,
     -2.05801092e-02  -2.99991691e-03  -6.95555517e-03]
   ..., 
   [  8.02658033e-03   1.25141265e-02  -1.61610227e-02 ...,
      1.25551578e-02   1.99947953e-02  -1.78292010e-03]
   [  2.40604561e-02  -5.40110981e-03  -1.18773011e-02 ...,
      4.57512855e-04   2.49750190e-03   3.34726535e-02]
   [  2.03178041e-02  -7.06721330e-03   3.42575205e-03 ...,
      5.86546073e-03  -1.37594286e-02   1.41640950e-03]]]


 [[[ -1.81726087e-02   2.75159702e-02  -2.47446299e-02 ...,
     -2.18837187e-02  -7.06683029e-04  -2.29983293e-02]
   [  2.36162264e-02   2.04714797e-02   5.98494604e-04 ...,
      1.72904064e-03  -2.35536024e-02   1.00785848e-02]
   [  2.88977828e-02  -2.71014962e-02   6.89422741e-05 ...,
     -2.22462229e-03  -1.35346781e-02  -1.94055792e-02]
   ..., 
   [  5.72596490e-03  -1.38218305e-03  -2.74356105e-03 ...,
     -2.21193302e-02   1.62844732e-02  -1.79289524e-02]
   [ -1.98088102e-02   1.01858028e-03  -3.72867775e-03 ...,
      3.98902688e-04  -2.59992294e-02   4.93210554e-03]
   [ -7.99190719e-03  -1.51394587e-02   1.42400684e-02 ...,
     -3.18816714e-02   1.25015089e-02   1.11150672e-03]]

  [[ -7.90291373e-03  -1.63623597e-02  -3.90731245e-02 ...,
     -1.40732313e-02   6.19990798e-03   1.12344278e-02]
   [  1.72092095e-02   2.09604539e-02  -2.14763228e-02 ...,
     -1.07403351e-02  -2.76451223e-02   9.56680998e-03]
   [ -2.61931419e-02  -7.07635954e-02  -1.75446067e-02 ...,
     -1.45663228e-02  -2.58081332e-02  -2.37229429e-02]
   ..., 
   [ -5.42311408e-02   2.62834691e-02   2.28793407e-03 ...,
     -2.68140994e-02  -2.40116846e-03  -4.27109301e-02]
   [ -4.85547958e-03  -2.26781592e-02   3.36030708e-03 ...,
     -6.50468888e-03   7.77931942e-04   7.66702462e-03]
   [ -2.78039370e-03  -5.08465944e-03   1.03094745e-02 ...,
     -1.97047722e-02  -5.68151334e-03  -1.89653281e-02]]

  [[  2.75126398e-02  -4.29944620e-02  -5.69471717e-03 ...,
     -4.23024371e-02   6.95762830e-03   3.75706404e-02]
   [  1.43592767e-02   2.54453644e-02   7.85807334e-03 ...,
      2.70368042e-03  -1.18859448e-02  -3.15377675e-03]
   [ -9.65716969e-03  -3.94739434e-02  -1.37151908e-02 ...,
     -2.43295878e-02  -8.27605650e-03  -2.80124843e-02]
   ..., 
   [ -3.22021581e-02   6.35026721e-04  -2.91981408e-03 ...,
     -2.95381974e-02   2.00063325e-02  -3.44928168e-02]
   [  1.84452105e-02   4.81445668e-03  -5.46915224e-03 ...,
      1.79347955e-02   2.65497877e-03  -3.84675013e-03]
   [  2.42762407e-03  -6.09260704e-03   6.96480647e-03 ...,
     -2.70785950e-02   1.65554788e-02   5.01804799e-02]]]


 [[[ -1.55010857e-02   7.82515481e-03  -4.75343736e-03 ...,
     -4.20544297e-02  -2.89614452e-03   8.39573704e-03]
   [ -4.84134443e-03   6.74760714e-03  -3.06260511e-02 ...,
     -2.97819637e-02   2.30645575e-02   1.56758148e-02]
   [  1.64596736e-02   1.34740956e-03   3.78655531e-02 ...,
      8.76898877e-03   3.11453477e-03  -1.18192816e-02]
   ..., 
   [  2.10043751e-02  -4.14115749e-03  -1.83329321e-02 ...,
     -1.76416114e-02   9.00804717e-03  -3.96270165e-03]
   [ -1.48524977e-02  -4.38239891e-03   6.38423138e-04 ...,
     -1.28341159e-02  -4.88086976e-03   2.21471526e-02]
   [ -9.90333967e-03  -6.40508160e-03  -1.71931330e-02 ...,
      6.62358385e-03  -6.41012471e-03   4.13767844e-02]]

  [[ -2.13003680e-02   1.16514117e-02  -2.63154674e-02 ...,
     -1.20349426e-03   3.01350898e-04   6.23646285e-03]
   [  2.55696718e-02   1.43610695e-02  -3.18526998e-02 ...,
      1.94014870e-02   1.00105051e-02   4.44433466e-02]
   [ -9.06996243e-03  -1.54127572e-02   3.38167436e-02 ...,
      1.22677246e-02  -1.51619660e-02  -2.96594929e-02]
   ..., 
   [  8.79893173e-03   1.20733073e-02  -1.38739189e-02 ...,
      5.87474834e-03  -1.72547773e-02  -2.38172561e-02]
   [ -8.16531759e-03  -1.01501904e-02  -1.97843034e-02 ...,
     -2.22676601e-02  -2.44717184e-03   2.31052451e-02]
   [ -3.61052230e-02  -8.66340473e-03  -7.72846490e-03 ...,
     -4.92681051e-03  -4.11583547e-04   3.57898436e-02]]

  [[ -2.04705577e-02   7.02418108e-03  -2.75637619e-02 ...,
     -1.72469895e-02   3.35375033e-02   1.77558586e-02]
   [  1.82223823e-02   3.55088189e-02  -6.93717878e-03 ...,
     -7.71357212e-03   1.77289248e-02   2.77619902e-02]
   [  5.38198277e-03  -1.24584287e-02   2.30165236e-02 ...,
     -7.71526806e-03  -4.64380346e-03  -9.47447680e-03]
   ..., 
   [  1.42160188e-02   8.50065902e-04  -1.01680933e-02 ...,
      4.76941979e-03  -6.58700103e-03  -8.40724818e-03]
   [ -3.43666449e-02   1.82627002e-03   4.44052648e-03 ...,
      3.58948921e-04   6.63448870e-03  -5.79800631e-04]
   [ -3.11952084e-02   7.78656919e-03   9.94770555e-04 ...,
     -2.45680520e-03  -1.34858873e-03   9.37598050e-02]]]]
model/bias_5:0
[-2.1635685  -1.42575753 -0.95984739 -2.09080172 -3.03982568 -3.51124358
 -0.77287602 -1.61375761 -1.76277328 -2.22224188 -1.83369815 -2.3836236
 -1.10566688 -2.51430559 -2.78160524 -0.86210293 -2.32084584 -1.18687522
 -1.4023701  -1.80790579 -2.05234146 -0.89665318 -2.12384677 -1.71901464
 -2.44213486 -2.33911228 -1.32084942 -2.37654185 -1.10580969 -2.62729907
 -2.03684092 -2.66382885 -3.46840906 -2.93307853 -1.95477486 -3.89330435
 -1.95828795 -2.57221746 -2.3340621  -2.07603717 -3.16604114 -0.90186
 -1.37465227 -2.66855145 -1.40006566 -1.85478973 -1.63110328 -2.34615707
 -2.42470098 -0.49774897 -1.63058233 -2.56455612 -1.08670938 -1.36184764
 -2.62449622 -3.80250645 -1.64574397 -2.25768876 -0.3963272  -1.88622916
 -0.84428072 -2.32852077 -1.86828375 -0.89223301 -3.43295574 -1.3665657
 -1.47676456 -2.50665808 -1.55440867 -1.18704057 -1.63930643 -1.52316511
 -1.68186831 -1.05481052 -1.64892673 -3.81426048 -1.83583355 -2.23924232
 -2.04341507 -1.05207133 -1.69158864 -2.29028225 -2.6546948  -2.2037096
 -0.69430977 -2.15977955 -3.58030605 -1.5130415  -2.43507051 -1.34074688
 -1.88222969 -1.81552172 -0.66826618 -0.74593192 -3.09586835 -2.48651361
 -1.44954491 -1.61048484 -3.22095394 -0.64433563 -2.60624838 -2.63891244
 -1.86589408 -2.09234858 -1.26548088 -1.14272213 -1.25157189 -1.14441848
 -2.14869237 -2.21055412 -0.83407319 -1.43739033 -1.60154009 -2.13828206
 -1.2381022  -2.75235772 -1.6356467  -2.12498641 -1.10371232 -0.91321903
 -1.96243501 -3.24517775 -3.36789179 -1.02597106 -1.29786468 -2.67239976
 -2.95321727 -0.91718173 -0.7446031  -2.71477032 -1.52864373 -1.66163588
 -1.60528219 -1.73819232 -2.66723204 -1.21307731 -1.35848069 -1.45356011
 -1.00675404 -2.03410435 -2.49653125 -1.51880968 -3.46728992 -2.02611852
 -0.36106169 -1.00774932 -2.23771    -2.7210989  -1.68414032 -1.75705135
 -0.76340443 -1.57857656 -2.89827895 -3.71053767 -2.30340552 -1.4942987
 -3.01876378 -3.84874272 -2.73947096 -1.21201873 -2.60275602 -2.72223282
 -0.72678077 -2.45039988 -2.43278742 -2.9031148  -0.97224653 -1.12715197
 -2.67338419 -0.79004645 -1.19939709 -1.14041913 -1.96858668 -2.23564577
 -3.64544892 -2.05899286 -1.02202725 -2.12737346 -0.87874824 -2.19558167
 -2.86156869 -1.9996922  -0.70114422 -2.58327436 -4.65348482 -1.15747023
 -2.92084455 -2.6601572  -1.19030166 -1.98023117 -3.64629221 -1.60508239
 -1.65874231 -3.31354713 -1.83191574 -1.49566078 -0.95128083 -0.58559871
 -3.62856412 -2.31631279 -2.34001517 -1.80262113 -3.85479712 -1.75048304
 -2.67717457 -1.85546696 -1.4019382  -1.57258677 -2.08818436 -1.78750443
 -1.32015634 -1.38291705 -1.84336281 -2.57653689 -0.54522693 -2.96903276
 -2.14780331 -4.30775404 -1.37486827 -1.93351507 -2.28375864 -2.38859963
 -0.60155773 -2.81429911 -0.58496386 -1.14913368 -2.05542397 -1.9175384
 -3.05251646 -2.2863369  -2.45378494 -3.42093778 -2.10134816 -1.26860714
 -2.79827285 -2.4294076  -0.4140417  -0.96978849 -1.36517906 -1.10687447
 -3.58145761 -2.36281586 -1.86095381 -2.69474292 -1.9897238  -2.93376541
 -1.33979166 -1.37239909 -1.37685061 -1.10204363 -1.22597694 -1.38374758
 -1.73297262 -2.65705872 -1.65227103 -4.33475399 -2.00166512 -1.69203639
 -1.85323095 -2.41580629 -3.70249605 -2.25720549 -3.93331933 -3.35596514
 -2.67612171 -1.53605092 -2.20618439 -2.76716065 -1.23928356 -2.47835541
 -2.73446512 -2.31391835 -2.49519444 -2.0467124  -1.19818807 -2.05570841
 -1.82560134 -1.55242252 -1.47297311 -2.28689766 -1.04888821 -2.90367699
 -1.28644681 -2.1696012  -1.57539082 -1.46312881 -1.65746832 -1.60822999
 -2.51471925 -2.37591267 -2.23248434 -2.56195045 -3.47352386 -2.61871648
 -1.70640004 -2.07566452 -1.85813963 -1.15095675 -2.66003561 -1.4577198
 -1.9370203  -1.73259664 -1.07785034 -0.97728658 -1.43890047 -1.75540566
 -2.13116693 -2.32245588 -1.43379247 -1.73291957 -2.62551546 -2.07263017
 -0.95793056 -1.99758077 -1.48881626 -1.68658948 -1.36479414 -1.96403408
 -1.74635947 -2.65217686 -1.57790101 -2.32443261 -1.69813728 -2.11308074
 -2.26830935 -1.79424047 -1.44739759 -1.58917785 -0.68829519 -1.07031345
 -2.9602294  -2.36518908 -2.21901727 -1.1338706  -2.69380903 -1.37590384
 -1.94546604 -3.52278638 -1.6780026  -2.24189472 -1.28468931 -1.23938513
 -1.67977512 -1.09980416 -1.71511936 -0.77213347 -1.66784334 -4.10651684
 -0.7839635  -0.96288288 -2.07279277 -2.3256731  -2.11625981 -0.70916784
 -1.87192285 -0.79519039 -1.15953696 -0.95510525 -0.77259862 -2.31996965
 -2.59060955 -2.84178305 -1.10440373 -1.6950053  -1.3845315  -2.5982213
 -1.58505499 -0.95931798 -1.42538023 -1.03097188 -1.97844207 -1.3900435
 -1.91479504 -3.85439229 -2.35643482 -1.98403227 -0.77674156 -0.99141139
 -1.29611504 -2.46857882 -2.02199697 -2.84646583 -2.01436615 -0.74608022
 -2.15092063 -2.60714531 -1.12265229 -1.47888279 -1.49931812 -1.72218776
 -2.81069469 -2.18877482 -0.96447915 -2.54043818 -1.80715585 -1.44544792
 -0.97122431 -1.77338445 -2.72135448 -1.32101953 -0.546574   -2.22560811
 -1.63738263 -1.33356047 -1.68096697 -0.40073368 -3.98505497 -1.96584356
 -1.59428501 -2.01593304 -3.49922085 -2.52315235 -2.04035091 -1.78555155
 -2.22301865 -1.49105835 -2.06585336 -1.67019832 -4.05720425 -1.04564941
 -4.78300667 -1.26950026 -1.17809975 -1.18513262 -1.24475741 -2.88629055
 -2.02364874 -1.88205421 -0.80866444 -2.75528145 -2.49973917 -1.61648297
 -1.78039992 -1.00646496 -2.02665687 -1.09379649 -1.62440288 -3.48584223
 -5.42609596 -1.67761064 -1.57841563 -1.44137645 -2.72211218 -3.94502783
 -1.25446379 -4.28238106 -1.71343017 -1.93516529 -1.52392817 -0.63366002
 -0.04271005 -1.12137198 -4.3315506  -2.69568777 -1.83481526 -1.7907598
 -2.88670182 -2.2408011  -1.84073102 -1.304021   -1.35916901 -1.23577285
 -2.25270414 -2.37474823 -1.69974852 -2.29300618 -1.78819883 -0.74519974
 -2.07897615 -4.07299757 -2.24223804 -1.42815983 -1.88103175 -2.22185612
 -1.35460234 -2.92805219 -2.21081734 -2.35609531 -1.55132747 -1.80357444
 -0.98405331 -2.18569851 -1.90004587 -2.55772877 -1.22124481 -2.05478787
 -2.97902441 -0.98691726 -2.60657024 -2.09930301 -3.51920128 -1.75374293
 -2.87572718 -2.09814763 -0.83931285 -2.60419035 -1.22324681 -1.23931599
 -2.1338582  -1.17028403 -1.87604403 -2.09526515 -2.06035614 -2.25990725
 -1.8771894  -1.84342897 -2.20547891 -0.97906095 -1.73870504 -2.2079258
 -1.28105927 -2.42341495]
model/scale_5:0
[ 1.43195319  1.36561584  1.27797043  1.51388323  1.73529589  2.08112574
  1.23612535  1.39095628  1.50722742  1.57563734  1.38747907  1.67353821
  1.30624235  1.62630868  1.66416848  1.13769341  1.71984494  1.3122859
  1.29212999  1.38487279  1.70345843  1.27265513  1.47017407  1.56097257
  1.62849236  1.72159731  1.41489911  1.57359016  1.16091394  1.73835707
  1.71733427  2.00724649  1.94431758  1.93738401  1.57509267  1.95404088
  1.46726084  1.59664881  1.53856778  1.61501157  1.69646895  1.22063482
  1.28345656  1.73790789  1.39037788  1.64410305  1.36470973  1.88357675
  1.49107015  1.16129053  1.48814666  1.42508101  1.35553145  1.51117539
  1.53293228  2.00108528  1.51775277  1.6188395   1.08870554  1.75682497
  1.23581016  1.48168445  1.43861234  1.32848716  1.93214989  1.60691726
  1.45852876  1.82854855  1.29813397  1.43009388  1.50463474  1.47502255
  1.59041154  1.4226917   1.279338    2.05182743  1.35689902  1.69068098
  1.65177071  1.13745153  1.31712937  1.69550014  1.5429759   1.62557626
  1.04684567  1.56413758  1.84979224  1.53027463  1.39614499  1.39000988
  1.6685884   1.58529711  0.98120868  1.25695801  1.9720273   1.88310564
  1.45161939  1.35530806  1.80343366  1.1687144   1.71465611  1.80507851
  1.50078547  1.71268582  1.48917472  1.3257823   1.55206275  1.27937949
  1.57061207  1.57953477  1.20887494  1.55369973  1.34458613  1.53740954
  1.45901418  1.86890078  1.35294259  1.56985414  1.22879124  1.06907976
  1.37427604  1.67793322  2.08024359  1.09511709  1.54353309  1.77576816
  1.68728304  1.03230214  1.11053193  1.62764549  1.43436122  1.38629365
  1.39009047  1.42869842  1.67815316  1.26699293  1.37442803  1.35177386
  1.25870097  1.56940317  1.64265609  1.2091893   1.92672873  1.61454415
  0.96604884  1.24805176  1.51441562  1.64508867  1.39428067  1.54314637
  1.09836042  1.61763501  1.48891497  1.90444112  1.60705268  1.23364985
  1.83840561  2.05281091  1.76715541  1.22689629  1.82564616  1.75918746
  1.1164825   1.72437096  1.76249504  1.88255     1.27815354  1.40901709
  1.75640869  1.07716191  1.28130317  1.25319421  1.60970843  1.69690025
  1.94656777  1.6052289   1.22999692  1.73215342  2.01865673  1.69540215
  1.88728511  1.56218207  1.03568602  1.74668503  2.17195988  1.34116578
  1.80025244  1.88531613  1.33388352  1.60501289  1.99276876  1.46700549
  1.30636573  1.80867314  1.40149307  1.53980017  1.27666676  1.03818011
  2.01565361  1.52739012  1.63316977  1.43405747  1.96361411  1.61075866
  1.83328176  1.58280563  1.44288969  1.16621935  1.58733368  1.58658719
  1.42438185  1.25665712  1.36319613  1.74952006  1.16161418  1.58566928
  1.52366042  2.0457387   1.34285092  1.57632077  1.63565183  1.7079221
  0.96529996  1.64821649  1.10146439  1.33708334  1.66647565  1.53196239
  1.89910448  1.68545651  1.74589002  1.8437109   1.51428461  1.12503207
  1.69396627  1.72359943  0.93427503  1.31378484  1.4608686   1.22284734
  2.05837631  1.59735656  1.58300543  1.9048903   1.55766582  1.99341571
  1.33780742  1.43403649  1.36221445  1.07366049  1.25842118  1.5957377
  1.5209465   1.81044531  1.53095853  2.15538573  1.42221999  1.59040582
  1.48442864  1.52517509  1.77792525  1.64530897  1.96003759  2.05286312
  1.60444665  1.16809165  1.58657837  1.87383831  1.42113757  1.53932226
  1.49823868  1.74216509  1.76550329  1.38699234  1.38341081  1.58213973
  1.55032444  1.44305062  1.45977354  1.58632767  1.4026165   1.82667434
  1.31014585  1.72228014  1.42710793  1.31382346  1.28965569  1.47383809
  1.64822161  1.627213    1.67958999  1.59552538  2.12172151  1.61871183
  1.39128602  1.66356444  1.46238947  1.09941483  1.76009703  1.40664792
  1.54535651  1.46680844  1.17112017  1.16668248  1.38523948  1.32190347
  1.61570168  1.73980999  1.57159221  1.26488817  1.74043703  1.64224505
  1.20348489  1.69030571  1.46939802  1.41993356  1.27592993  1.61068845
  1.4020797   1.75913644  1.51386809  1.50732398  1.30927861  1.67536306
  1.45770431  1.48471534  1.24558997  1.34267879  1.08007777  1.3174907
  1.84449613  1.84180713  1.71329045  1.31348753  1.74348712  1.47482705
  1.74686885  1.89736629  1.52242053  1.4499383   1.28871095  1.47554839
  1.44723487  1.37094545  1.27047849  1.17261314  1.4491291   1.90929723
  1.17336559  1.09584236  1.5638181   1.57022643  1.48492217  1.08137465
  1.63871062  1.19201458  1.32450795  0.97682393  1.18330133  1.48415136
  1.91736698  1.92898262  1.22961318  1.35683775  1.39513075  1.7920841
  1.30852318  1.18453598  1.26505971  1.3566314   1.44627583  1.47460687
  1.48495042  1.91740203  1.59041917  1.61284935  1.18515563  1.1591388
  1.30119991  1.75165117  1.59733057  1.67703795  1.47791898  1.08526778
  1.51526392  1.67163157  1.43221629  1.42981529  1.5106535   1.60902417
  1.78825557  1.61892951  1.26263916  1.73562694  1.46276116  1.5594461
  1.28861308  1.56100082  1.54323828  1.1232748   0.97467983  1.58943725
  1.51028478  1.25645304  1.5649085   1.085109    1.99713981  1.57414699
  1.42592359  1.53698397  1.78623998  1.5908972   1.57161808  1.42602229
  1.83338523  1.26112843  1.56664383  1.54800105  2.22038174  1.34546804
  2.27543139  1.39923263  1.3570621   1.33265758  1.29893732  1.79293609
  1.62581491  1.47206402  0.98034412  1.8600508   1.79958868  1.34616339
  1.46656346  1.16933262  1.4783721   1.17608869  1.38133264  1.87928867
  2.44266367  1.35734057  1.43770313  1.51912117  1.72824872  2.06368017
  1.3743546   2.09579539  1.33371353  1.63997006  1.39984035  1.09734392
  0.58384979  1.2644453   2.24937534  1.94352114  1.36098158  1.62578535
  1.84250391  1.53367853  1.42252266  1.32064462  1.41579342  1.14141011
  1.59567404  1.65881407  1.55799782  1.67277813  1.46506763  1.19078612
  1.44356012  2.09963083  1.63740993  1.35169029  1.43128216  1.59946299
  1.41292989  1.8798784   1.5302937   1.70275474  1.37207413  1.49189675
  1.27179885  1.54911923  1.53128684  1.72593653  1.33152759  1.58349299
  1.80520606  1.3169452   1.60624099  1.59284842  2.11101055  1.35460019
  1.83729696  1.55924487  1.22930765  1.67055929  1.41611946  1.3476609
  1.64539611  1.29433095  1.53296328  1.50980043  1.44380677  1.61453557
  1.68201351  1.63674521  1.49329853  1.26311529  1.6210593   1.65262902
  1.19134092  1.62103963]
model/mean_5:0
[-0.63500965 -1.21031296 -0.9502632  -1.2885865  -1.28857255 -0.91068596
 -1.32432628 -0.83180851 -1.47835684 -1.31652343 -1.29502666 -0.57691509
 -1.1530906  -1.13394225 -1.32238507 -1.75288355 -1.39291728 -0.79438025
 -0.93507922 -1.12732625 -1.73976302 -1.29650462 -1.01101577 -0.75920355
 -0.94951993 -1.07683241 -1.07136834 -0.45418459 -2.00550032 -1.46011996
 -1.19921839 -0.77531248 -1.07250714 -0.46675244 -0.76952738 -0.71489573
 -0.9717629  -1.18384778 -0.52855855 -0.97751373 -1.17795134  0.29440761
 -1.7322638  -1.39743042 -1.18802643 -0.73783839 -0.4949455  -0.70004582
 -1.33455694 -0.30667406 -1.06430149 -0.91036767 -1.10298097 -0.89210975
 -0.28271425 -0.97192854 -1.30690849 -0.67584252 -1.30567884 -0.45469826
 -0.8785789  -0.6565268  -0.49151984 -1.96938431 -1.1691128  -1.12729657
 -0.52733445 -1.06350672 -0.50088596 -0.7179063  -0.44084758 -0.28192803
 -0.88432884 -1.23002994 -0.80020732 -1.26616454 -0.70772666 -1.51992357
 -1.1771214  -0.9971531  -0.82077795 -0.87853891  0.04904947 -0.57273024
 -1.38599062 -0.44802785 -0.81754529 -1.33536053 -1.15777242 -0.8342644
 -1.01186728 -0.49552709 -0.70612717 -0.3847512  -1.21943986 -0.59931844
 -1.13555479 -0.74827868 -0.99584413 -0.98376232 -1.22403061 -0.86864644
 -1.27857554 -1.16047132 -0.21971537 -1.84690154 -0.84186858 -0.77581108
 -0.53041106 -0.75247508 -0.97353125 -0.30023324 -1.19332659 -0.35455716
 -1.42777216 -0.96435255 -1.43629992 -1.27419746 -1.57637787  0.4169088
 -0.77583069 -0.88681293 -1.6167717  -0.78243047 -0.77874899  0.11339448
 -0.97615421 -0.84186226 -0.65975583 -0.12328645 -0.4676134  -0.69746649
 -1.14621615  0.02697555 -0.76488048 -0.73141724 -1.00037003 -0.96560341
 -1.02580214 -0.34698248 -0.46401164 -1.22370958 -0.7912761  -0.308732
 -0.54012918 -1.7768966  -1.18709099  0.15074277 -0.9611091  -1.44275999
 -0.52297384  0.01023866  1.98172522 -0.87397438 -1.41912401 -1.65737653
 -1.29343283 -0.7872026  -1.10075569 -0.10109457 -0.51780111 -0.88177985
 -1.76959443 -1.22094703 -1.47222137 -0.75887662 -1.80912387 -0.71270162
  0.17208858  0.14080051  0.29012236 -1.16488099 -1.18513858 -0.91318858
 -1.73221242 -0.23702009 -0.22189455 -0.48605463 -2.40143704 -0.78360301
 -0.81742942 -1.16275668 -1.10143721 -0.6098178  -1.16099012 -1.1403532
 -0.88401234 -1.25900745 -0.5596832  -1.47063041 -0.90517616 -1.15914142
 -1.11434782 -1.00837672 -1.363132   -0.55537218 -0.67369813 -0.47704205
 -0.69868749 -1.19528317 -0.57901198 -0.25977582 -0.79430413 -0.99691474
 -0.96830869 -1.09361267 -0.74693441  0.46855152 -0.65466481 -0.39847815
 -0.93698442 -0.58025354 -1.54842663 -0.34098932  0.17759231 -0.6400584
 -0.98688376 -0.68231255 -1.0091691  -0.59939373 -0.50192326 -0.54440475
 -1.10227466 -0.71983433 -1.95628655 -1.27516222 -0.16997556 -0.72911078
 -1.09828424 -0.7087186  -1.48509824 -0.52189487 -1.04205346 -0.98468345
 -1.32098818 -0.35876313 -1.52358842 -0.1984885  -0.35068128 -0.12378621
 -0.33128223 -0.83083522 -0.38228777 -1.67223263 -1.40118814 -0.69986755
 -0.50428843 -0.03322759 -0.44209215 -1.38515818 -1.07569826  0.11018064
 -0.58284575 -0.46679881 -0.57338148 -0.53002155 -0.62890881 -0.26346752
 -0.46092135 -1.18449843 -1.17159665 -1.8444078  -0.39896396 -0.67711735
 -0.90831155  0.56324351 -0.94879502 -1.15280652 -1.34827077 -1.6641233
 -0.50171512 -0.55020404 -0.68531495 -1.18828261 -0.99335319 -1.17465389
 -1.22405744 -0.81459183 -0.88203394 -0.78203201 -2.22007918 -0.67060184
 -1.20917487 -1.36837995 -1.16114628 -1.13946319 -0.69053662 -1.10877204
 -1.04117739 -1.40265131 -0.51721692 -0.85634041 -0.6146214  -0.54497963
 -0.69104069 -0.97115028 -0.57019019 -1.44798994 -1.2806375  -1.75855017
 -0.52232713 -0.7332325   0.7533803   1.01691127 -1.5764246  -0.58785349
 -2.11332178 -0.79081488 -1.02579367 -0.61270595 -0.70906341 -1.14098978
 -0.18399404 -0.3356418  -0.97861302 -0.40461239 -1.19145274 -1.00826347
 -1.15304899 -1.20842063 -0.53939342 -1.59576762 -0.6122306  -1.88654816
 -1.07212901 -1.40139067 -1.24676168 -0.91972482  0.25692201 -1.61085558
 -0.65913242 -0.79348975 -1.3095969  -0.66276014 -1.31409252 -0.28792706
 -0.41892967 -0.21340007 -0.71834922 -0.85822707 -0.76905084 -0.64957285
 -0.88462079 -1.27127433 -1.42629278 -1.28794682 -0.88733304 -0.54053956
 -0.66394454 -1.0328877  -1.60157669 -0.80071133 -0.77892834 -0.60377312
 -1.38440084 -0.39485073 -1.31654823  0.01022485 -1.21542716 -0.29018244
 -0.94483662 -0.54736108 -1.46885014 -0.69642711 -0.79604906 -0.95755756
  0.23896621 -1.21409547 -0.30804843 -0.15745662 -0.91915941 -1.54069471
 -0.76851887 -0.77907193 -1.93916452 -0.81640828 -0.5347513  -0.64535779
 -1.28059256 -1.36309206 -0.70912236 -1.78612924 -0.4958455  -0.2563625
 -0.94155633 -0.70248616 -0.70178622 -2.45760179 -0.27395633 -0.59962279
 -1.23486733 -0.22714102 -1.62442911 -0.47911805 -1.10376298 -0.5249818
 -1.9805305  -0.73880559 -1.42192125 -0.59415734 -0.27742079 -1.41887391
 -0.93048233 -0.91438562 -1.58025408  0.85376066 -0.8542695  -0.34267917
 -1.07157969 -0.49878049 -1.47890806 -0.43737209 -1.1860528  -0.71208066
 -1.48279583 -0.51937342 -1.31653261 -0.19502993 -1.02421665 -0.97055638
 -0.91484988 -1.17868185  0.08597937 -1.00782132  0.19411442 -0.81873828
 -1.24748945 -1.97562206  0.3672888  -0.3192347  -0.44529909 -1.24612308
 -0.35957968 -1.27031636 -0.67229974 -1.1229881  -1.30922508 -0.38742259
 -0.91829461 -0.95044535 -1.00365746 -1.26211083 -0.48315045 -0.99100614
 -1.18163836 -0.38997304 -0.46014392 -0.23666705 -0.99713707 -2.00476193
  0.30340633 -0.78827065 -1.11814833 -0.2600151  -0.77716887 -0.59490192
 -1.37714195 -0.70953172  1.06818879  0.04678975 -0.76373154 -1.54759216
 -1.07842445 -1.40811288 -0.98314518 -1.04232657 -0.95465267 -0.76139635
 -0.97906369 -1.04025936 -0.97511554 -1.05945611 -0.95428634 -1.15521908
 -0.44861722 -0.8718459  -0.76823658 -0.57745343 -0.5727908   0.13047855
 -0.17345522 -0.88116938 -1.0121901  -1.09527218 -1.31880486 -1.26785445
 -1.12265038 -0.58022016 -1.40878332 -0.88576066 -0.5247314  -0.97741282
 -1.11840808 -0.49621385 -2.221205   -1.50531328 -0.50730634 -0.77912718
 -1.4613353  -0.89943242 -1.33481622 -0.66490746 -0.76934791  0.99512655
 -0.46822789 -0.48162207 -0.85956287 -1.00314975 -1.21239126 -0.76412666
 -0.45970351 -1.41428125]
model/variance_5:0
[ 1.18812335  2.39107871  2.40791535  1.41289818  1.23990321  2.23095584
  3.35604644  1.25119913  2.19755006  1.60037076  1.84276462  1.37439799
  2.05444765  1.36937094  1.60931361  2.42741871  1.75264871  2.0962534
  1.82310808  1.86181331  2.28459501  2.56197381  1.60686588  1.74162722
  1.17305088  1.73537302  2.11833215  1.37363899  2.20174432  1.58925283
  2.02488327  2.20688486  1.83681107  1.2457583   1.59450114  1.00482297
  1.29724431  1.38756788  1.47982633  1.50835812  1.32377839  2.00259089
  2.08048368  1.33698654  1.54734099  2.1311307   1.57357109  2.30118227
  1.27200818  3.19262123  2.80930996  1.08397055  2.29240513  2.2834084
  1.65000427  1.45281172  2.12893915  1.50528669  3.67867923  2.46269798
  2.23757172  1.93454206  1.44193888  3.73238277  1.71307671  2.96715403
  1.65839756  1.96965456  1.25465441  2.61069274  1.9461323   2.18695688
  2.01689196  2.5995965   1.36555648  1.31501639  1.11479855  2.13186884
  2.12445188  1.84328794  1.99019337  1.74294293  1.21328819  1.48149085
  3.24725389  1.48448634  1.18495262  2.44310904  1.25923741  2.40106201
  2.35858631  1.8426044   2.43758917  2.64567041  1.5271914   1.93999374
  2.18490863  2.2373507   1.36838484  3.06236219  1.5091325   1.85552919
  1.93875098  2.3247211   2.6731112   2.29615831  2.49734473  1.95254505
  1.51149094  1.25144923  1.88342726  2.15413785  1.7282151   1.61587989
  2.39218187  2.01251245  1.88215506  1.65047014  2.84905005  1.90942371
  1.44008648  1.07451236  2.00788116  1.80147541  2.25475311  1.6481812
  1.3493526   1.91262412  2.13330746  1.47610819  1.69018793  1.42219722
  1.6970911   1.24795866  1.12949646  2.05741882  1.99077141  1.77060401
  2.29393768  1.51628876  1.31916797  1.36992109  1.41204023  1.79197598
  2.46163702  3.2884903   2.28500581  1.46802402  1.73799598  2.68457484
  2.07922316  2.21173835  2.24807453  1.00097787  2.12512255  1.63703966
  1.27827954  1.58421743  1.52683902  1.40020549  1.93835855  1.56062531
  3.07507515  1.89073575  2.3016448   1.5538919   2.9633348   2.4090364
  1.54533315  3.2537694   1.6221664   2.57935953  1.94342113  1.94627035
  1.66758871  1.94043505  1.94617987  1.66851819  4.41504669  2.01045108
  1.66352963  1.76799273  2.50759792  1.68289232  1.35096622  3.15131402
  2.02849364  2.11157537  1.82574749  1.82994604  1.38292253  2.44302392
  1.4784317   1.26120591  1.62803435  2.89196539  2.18199182  2.78813076
  1.3343097   1.27604806  1.54132807  1.77509463  1.29505754  2.30899811
  1.66681767  2.23106313  1.83802962  1.48247886  2.16528869  2.28951311
  2.65828848  1.57554746  1.72938752  1.32831299  2.92202139  0.97789967
  1.80530679  0.9838742   2.06180048  1.65392661  1.58071494  1.36016893
  1.94696128  1.35704708  4.21428013  2.36907458  1.90104544  2.003438
  1.46954012  1.61493051  1.96442091  0.98237008  1.46238387  1.19356072
  1.06835854  1.46911407  2.67188048  2.40764236  2.43069792  1.76153839
  1.68279672  1.61894906  1.65919816  3.34046102  1.58178139  1.69367397
  1.73830342  2.02268124  1.35700619  1.54695868  2.33602381  2.88960147
  1.72434425  1.80429542  2.16967916  1.1008538   1.62741351  2.22649908
  1.54143155  1.6590873   0.87409747  1.50113273  1.26021838  1.64146888
  1.59361613  1.0439111   1.80923295  1.61315417  2.4832437   1.56038082
  1.44067037  1.89513803  1.94923306  1.88066745  2.17495561  1.68490481
  1.5691551   1.87302876  1.7336489   1.54444647  2.60567951  1.83831239
  1.65138268  2.25486088  2.0828979   1.64969766  1.36956537  2.26233816
  2.07627296  1.88339794  1.65808153  1.35477054  1.84922266  1.41053319
  1.62021756  2.45742917  1.89168     1.63983023  1.86583042  3.63067651
  1.53092825  1.81179321  2.14386272  1.9094702   1.75068855  1.78629446
  2.4480958   2.15631199  2.37532783  1.8820709   2.07440209  2.56543636
  1.98642993  1.80537891  1.86731732  1.84247875  2.00679016  2.25384688
  2.01022339  1.74966955  3.03282976  1.09635007  1.37136507  2.05315757
  1.48175514  1.78762591  1.60833454  1.55494797  2.22500873  2.28281164
  1.68312991  1.80321777  2.31286359  1.85617113  1.67993581  2.40664482
  2.25899148  1.34571326  1.95891333  1.32330585  2.15306139  2.15305328
  1.4825772   2.45589042  1.36219597  2.60768723  1.81940758  1.20532119
  2.64890623  1.91724622  1.58900511  0.98521322  1.44339895  2.99677968
  2.41597557  2.25914216  1.92237318  2.03026915  2.36312985  1.60749888
  1.89435589  1.98282218  2.43689823  2.04332566  1.64849555  1.62772822
  1.79592335  2.27048349  1.71070039  2.72216368  1.7368809   2.11077666
  1.35933447  1.20691466  2.28141093  1.69186008  1.97442114  1.83462799
  2.25602341  1.72685778  1.90701234  1.8762784   1.76644886  1.83518183
  1.27071309  1.53780365  2.67536926  2.17938304  2.23215508  2.08548284
  1.86154628  1.62097025  2.35903645  1.80653405  1.72001219  2.28839517
  2.89410663  2.00890613  1.20078886  1.31561625  3.05541205  1.97262752
  1.93172598  2.0175333   4.17755795  3.21039438  1.22739315  2.22071242
  2.27273393  1.59432745  1.37179327  1.0159359   1.69339478  1.89408338
  2.92833233  1.67512417  1.72127843  1.99795711  1.77487051  2.74608254
  1.09263432  2.1653223   2.16748476  1.96267784  1.88278663  1.43126726
  1.55579603  1.81544507  1.49070692  1.75280273  1.71997416  1.78235471
  1.88892245  1.97182596  1.73834884  1.99420953  1.66330552  1.07949638
  0.93173987  1.91991055  2.39154553  2.36460853  1.9917928   1.14781046
  2.39576387  0.89731622  2.12596512  1.86118066  1.93310535  2.33135128
  1.5762502   2.01466727  1.29711401  1.95144582  2.05715704  2.75973439
  1.92032421  1.94671333  1.92702675  1.48931265  1.93371904  1.37688732
  2.00330806  1.65695059  2.60614038  1.40954316  1.4702276   2.28564882
  1.50049961  1.154163    1.82553387  1.65144289  1.82939005  2.06268907
  2.20833206  1.58379805  1.35258102  1.28315639  1.80945587  1.67996466
  2.07989502  1.68846154  1.74376285  1.68432784  2.03560185  1.65879214
  1.98498201  3.18290901  1.51933277  1.77271724  1.74994946  1.54569697
  1.7648735   2.27673721  2.99304366  1.78822887  2.61353254  2.00241184
  1.51356328  2.47032166  1.67121291  1.99734032  1.19484699  1.69215918
  2.15667677  2.17106533  1.88861477  3.24927735  1.98031485  1.82798553
  1.7040658   1.79628193]
model/conv_6:0
[[[[ -1.77983344e-02  -8.06150399e-03  -3.91300721e-03 ...,
      2.78774812e-03  -3.86235188e-03   7.89336802e-04]
   [ -3.83543293e-03  -6.25432120e-04  -1.78318601e-02 ...,
     -2.49117184e-02   5.17759565e-03  -9.87201184e-03]
   [  9.24945064e-03   2.86019873e-03  -2.00919155e-02 ...,
     -6.66495063e-04   1.70120150e-02  -7.09957560e-04]
   ..., 
   [ -6.28592353e-03  -3.86058912e-02  -1.82798244e-02 ...,
      7.04617181e-04  -1.92710310e-02   9.14842822e-03]
   [ -1.23038599e-02   8.86464119e-03   5.89905307e-04 ...,
     -1.34718362e-02   5.87409968e-03  -8.84729903e-03]
   [ -3.13774613e-03   2.98006460e-02  -8.24479572e-03 ...,
      3.18958331e-03  -1.31867069e-03  -9.81198251e-03]]

  [[ -8.82879831e-03  -2.67152558e-03  -1.62046624e-03 ...,
      1.04964599e-02  -1.34115051e-02  -2.70493980e-03]
   [ -1.39410049e-02   1.23884333e-02  -8.09156895e-03 ...,
     -1.50967212e-02  -1.26777571e-02   5.94065234e-04]
   [  6.77745370e-03  -4.83907014e-03  -1.68408155e-02 ...,
     -8.29642173e-03   2.50399509e-03   3.97205213e-03]
   ..., 
   [  2.57817982e-03  -2.51731053e-02  -1.98735669e-02 ...,
     -3.22922762e-03  -1.16276806e-02  -5.58922533e-04]
   [ -1.29864831e-02   1.06842350e-02  -1.10622840e-02 ...,
     -1.37615986e-02  -8.53799342e-04  -2.15539150e-03]
   [  5.39336959e-03   2.53864005e-02  -1.21061159e-02 ...,
     -1.30200130e-03  -1.60537735e-02  -1.30089177e-02]]

  [[ -1.78185329e-02  -2.07377486e-02   4.22926527e-03 ...,
      1.84984561e-02  -2.67441710e-03   5.37876599e-03]
   [  1.09814329e-03  -4.35866788e-03  -4.02174983e-03 ...,
     -5.62736345e-03   9.86692216e-03   1.55416527e-03]
   [  7.33839523e-04  -6.20207516e-04  -1.45547464e-02 ...,
     -6.84217084e-03  -4.42868331e-03  -3.57097806e-03]
   ..., 
   [ -1.85612459e-02  -7.53772631e-03  -1.68246031e-02 ...,
     -1.21803246e-02  -9.66503192e-03   1.09782424e-02]
   [ -1.65330910e-03   1.28097385e-02  -5.99902729e-03 ...,
     -1.16429925e-02   7.24586379e-03   1.12002098e-03]
   [ -2.12267996e-03   9.33681335e-03  -4.97146370e-03 ...,
     -7.22670136e-03  -8.14372580e-03  -5.83359459e-03]]]


 [[[ -1.34956082e-02  -8.45636427e-03  -7.90885836e-03 ...,
     -1.31657580e-04   2.41142372e-03   8.40782002e-03]
   [  1.73587148e-04   8.83809198e-03  -6.98481360e-03 ...,
     -2.76563112e-02   6.63785357e-03   3.28643620e-03]
   [  8.27782205e-04   8.93499516e-03  -1.12958020e-02 ...,
     -8.13422550e-04   1.92564763e-02   4.34905384e-03]
   ..., 
   [ -1.48293562e-02  -6.57522772e-03  -1.92666724e-02 ...,
     -4.13314532e-03  -1.45425797e-02  -5.27232885e-03]
   [  5.81717250e-05   1.59915611e-02  -8.86409823e-03 ...,
     -1.65497717e-02   7.14456430e-03  -4.84060217e-03]
   [ -9.46279243e-03   2.91652605e-02  -6.02409011e-03 ...,
      2.99022906e-03  -1.13726044e-02  -4.23038704e-03]]

  [[ -4.35016677e-03  -1.20195411e-02  -4.76564793e-03 ...,
      5.96527755e-03  -2.46150093e-03   4.50417661e-04]
   [ -1.41988704e-02   2.95469295e-02   6.03618519e-03 ...,
     -1.81791168e-02  -1.99333876e-02   5.03991544e-03]
   [ -1.24963257e-03  -1.46530475e-03   6.15771301e-03 ...,
     -1.06983762e-02   8.44052061e-03   7.40505243e-03]
   ..., 
   [  4.92983405e-03  -8.71737767e-03  -1.76889542e-02 ...,
     -8.38247128e-03  -4.87370556e-03  -6.30359259e-03]
   [  2.39311019e-03   8.01726431e-03  -1.39165726e-02 ...,
     -1.65022407e-02   5.78931300e-04  -6.18415046e-03]
   [ -4.83781844e-03   2.96085067e-02  -7.06686545e-03 ...,
     -3.79801868e-03  -2.02727932e-02  -7.09311664e-03]]

  [[ -6.95411442e-03  -2.09408626e-02   8.39535380e-04 ...,
      7.60464743e-03  -2.42724642e-03   6.74405508e-03]
   [  1.17771765e-02   9.48354974e-03   3.96758877e-03 ...,
     -1.17829340e-02  -2.66025728e-03  -2.53302837e-03]
   [ -7.41642946e-03  -3.78244463e-03  -3.65860434e-03 ...,
     -9.37457941e-03  -9.39851394e-04   4.56427364e-03]
   ..., 
   [ -8.87149666e-03  -9.64702014e-03  -1.17488848e-02 ...,
     -1.21923853e-02  -5.24882134e-03  -8.55429797e-04]
   [  8.33265297e-03   8.61425698e-03  -1.38537884e-02 ...,
     -1.05200969e-02  -4.36586747e-03  -4.91210399e-03]
   [ -7.59198423e-03   1.04863150e-02  -5.26924198e-03 ...,
      2.15267693e-03  -5.72945364e-03  -7.89466221e-03]]]


 [[[  5.26194833e-03  -1.41956843e-02   1.00387428e-02 ...,
      3.70949763e-03   5.77806402e-03  -1.10102342e-02]
   [  1.41575802e-02   1.47701204e-02   1.85281690e-02 ...,
     -1.39140859e-02  -6.44682860e-03  -8.06413870e-03]
   [ -1.41915074e-02   1.43340994e-02  -5.83887985e-03 ...,
      1.06506040e-02   9.67377424e-03  -1.62512949e-03]
   ..., 
   [ -5.84594253e-03   3.95193836e-03  -1.04779257e-02 ...,
     -3.59219778e-03  -1.10079739e-02   4.70486935e-03]
   [  1.64914466e-02  -1.29199345e-02  -3.32500902e-03 ...,
     -2.01393627e-02  -4.73226793e-03   3.67679400e-03]
   [ -1.27232969e-02   2.00462155e-02  -8.21614085e-05 ...,
      1.75061892e-03  -1.02673862e-02  -4.18062275e-03]]

  [[  3.36674927e-03  -1.09042050e-02   5.03883138e-03 ...,
      2.24762200e-03   4.57461039e-03  -1.52192852e-02]
   [  6.19669631e-03   2.17988286e-02   1.51683409e-02 ...,
     -8.43804330e-03  -2.19823550e-02  -1.37920491e-02]
   [ -5.19751292e-03   1.23426449e-02   5.73387370e-03 ...,
      2.35305820e-03   1.44988112e-03   7.83598167e-04]
   ..., 
   [  1.36058712e-02  -3.44822207e-03  -6.20300695e-03 ...,
     -1.56882440e-03   5.98063692e-03   5.42882364e-03]
   [  7.21715577e-03  -1.67261176e-02  -3.48391687e-03 ...,
     -1.34612806e-02  -1.41965842e-03  -1.81195297e-04]
   [ -1.17044225e-02   2.01993361e-02  -3.43610463e-03 ...,
     -7.93332141e-03  -1.62939187e-02  -1.11896368e-02]]

  [[  5.86894760e-03  -1.24834031e-02   8.79933964e-03 ...,
      2.84316833e-03  -1.00622703e-04  -1.14187980e-02]
   [  2.57906578e-02   6.57647476e-03   3.84177081e-04 ...,
     -9.34824813e-03  -1.10133123e-02  -8.47807247e-03]
   [ -8.05290230e-03   6.38082158e-03  -3.18510784e-03 ...,
      9.21993051e-04  -6.56590983e-03  -3.55294812e-03]
   ..., 
   [ -6.42296392e-03  -6.62789075e-03  -7.67360302e-03 ...,
     -8.68223235e-03   1.15707377e-03   5.81728807e-03]
   [  8.11865740e-03  -1.00237010e-02  -7.74452975e-03 ...,
     -8.59513506e-03   1.14821654e-04   2.96712364e-03]
   [ -1.48840295e-02   5.10961842e-03  -5.79258800e-03 ...,
     -1.69579964e-03  -5.23613673e-03  -2.03169938e-02]]]]
model/bias_6:0
[-3.92680693 -2.53464127 -3.50983906 ..., -2.29750991 -3.77762222
 -2.1210835 ]
model/scale_6:0
[ 5.82537031  4.07796621  5.20688486 ...,  3.72975826  5.72156429
  3.55723047]
model/mean_6:0
[-0.50759649 -0.42395341 -0.15057085 ..., -0.31051162 -0.23511486
 -0.18323842]
model/variance_6:0
[ 0.9831053   0.62095761  0.86906344 ...,  0.47331387  0.79897004
  0.49210963]
model/conv_7:0
[[[[  2.32696161e-03  -1.79190043e-04   1.92383118e-03 ...,
      1.75300241e-02   4.54560714e-03   6.17583189e-03]
   [  9.44292871e-04   1.74212139e-02  -1.40067050e-03 ...,
      2.15497706e-03   1.12597486e-02  -2.98841833e-03]
   [ -1.55175906e-02   6.22513238e-03   1.42489318e-02 ...,
     -1.32725830e-03  -1.38072744e-02   5.94614539e-04]
   ..., 
   [  1.60207748e-02   2.31726887e-03  -3.32453079e-03 ...,
     -5.30799327e-04  -6.43952191e-03  -9.93524212e-03]
   [ -7.68736983e-03   3.03702266e-03   7.36742420e-03 ...,
      1.08032115e-02   5.87467570e-04  -4.16847943e-05]
   [ -9.41043603e-04   8.22274294e-03  -1.29045509e-02 ...,
      2.69626663e-03  -4.57640830e-03  -1.04265390e-02]]

  [[  3.55557771e-03  -7.04665761e-03  -5.50293876e-03 ...,
      7.89669156e-03  -1.79514918e-03  -1.96390226e-03]
   [ -1.05700297e-02   1.93835888e-02  -2.00452488e-02 ...,
      4.11804533e-03  -4.14653495e-03  -7.15759210e-03]
   [ -1.98962856e-02  -3.59300710e-03   3.35832406e-03 ...,
     -2.02059583e-03   1.63949700e-03   5.20638330e-03]
   ..., 
   [  6.88902987e-03  -1.14955401e-04   8.24292656e-03 ...,
     -6.59993850e-03  -1.21408375e-03  -1.92819547e-03]
   [ -4.95573319e-03   1.25909466e-02   1.17056016e-02 ...,
      2.69062351e-03   5.57576399e-03   7.85700884e-03]
   [ -2.93718651e-03  -1.77833586e-04   6.98324759e-03 ...,
     -1.88399386e-03  -4.86000627e-03   4.58741793e-03]]

  [[ -1.83877244e-04   4.11129743e-03  -2.71276897e-03 ...,
      7.97200203e-03  -1.12269484e-02   9.35593992e-03]
   [  8.39896602e-05   6.63245190e-03  -1.18634896e-02 ...,
     -2.04965007e-03  -1.97446626e-03  -9.52090323e-03]
   [ -2.65533756e-03  -4.45085624e-03   5.22370683e-03 ...,
     -3.35979788e-03  -5.43301180e-03  -3.06339678e-03]
   ..., 
   [ -5.95896598e-03   4.38671652e-03   7.52512086e-03 ...,
     -4.23868932e-03   6.08465984e-04  -4.25234251e-03]
   [ -3.09116906e-03   1.37682119e-02   6.14033965e-03 ...,
     -1.11009623e-03   4.06674622e-03   5.55309188e-03]
   [  5.56940446e-03  -5.83949173e-03  -5.48045663e-03 ...,
     -1.51210267e-03  -2.11141817e-03   4.89308499e-03]]]


 [[[ -8.83798022e-03  -1.69542152e-02   3.65400687e-03 ...,
     -3.59886675e-04  -3.96686280e-03  -1.17361955e-02]
   [ -1.69009459e-03  -1.07139547e-03   4.68377396e-03 ...,
     -2.03063488e-02   4.67808655e-04  -7.66973011e-03]
   [ -1.16117373e-02  -3.44718457e-03  -2.80635175e-03 ...,
      2.68333778e-03   1.61955063e-03   6.21978519e-03]
   ..., 
   [ -1.63644130e-04   1.35248993e-03   3.71351023e-03 ...,
      9.44181159e-03   4.72567184e-03  -5.51899336e-03]
   [  1.06054917e-02  -4.82092658e-03   6.68794429e-03 ...,
      8.55706818e-03   4.57429764e-04  -6.71983743e-03]
   [ -1.09519912e-02   1.46899456e-02  -6.54701376e-03 ...,
      2.95660086e-03   4.70455922e-03  -1.33070536e-02]]

  [[  3.74101126e-03   4.90732258e-03   1.48701924e-03 ...,
      3.84741253e-03   2.30132770e-02  -1.21630589e-02]
   [  7.56372232e-03  -3.62480152e-03  -1.18118245e-02 ...,
     -1.12101985e-02  -7.48111028e-03  -5.46249212e-04]
   [  5.91397053e-04   5.78733347e-03  -6.30307384e-03 ...,
      5.95747866e-03  -7.75763625e-03   1.01948008e-02]
   ..., 
   [  2.33774609e-03  -1.61844213e-03   1.70870475e-03 ...,
      7.18383584e-04  -3.43217002e-03   5.30985137e-03]
   [  9.61094908e-03   8.09518248e-03   7.48785213e-03 ...,
      1.64618641e-02  -6.14085933e-03   5.81908971e-03]
   [ -8.92240461e-03   7.47584738e-03  -1.25277170e-03 ...,
     -4.10206849e-03  -6.17286377e-03   3.33637348e-03]]

  [[ -7.82524981e-03   1.88428152e-03   6.80624135e-03 ...,
     -9.28246882e-03   7.47231627e-03  -4.91960999e-03]
   [ -6.07132632e-03   5.04272291e-03  -1.98114924e-02 ...,
      2.47005140e-03  -7.79029075e-03  -6.93848450e-03]
   [  7.05551356e-03   7.87846162e-04   2.15091091e-03 ...,
     -8.21052119e-03  -1.36031453e-02  -1.47840695e-03]
   ..., 
   [  7.46903475e-04  -8.57078284e-03  -1.17726512e-02 ...,
     -7.93651119e-03   2.89835315e-03  -6.83985092e-03]
   [ -2.92210467e-03   9.69247520e-03   1.58526152e-02 ...,
      7.84048112e-04  -9.28071328e-03   9.11204610e-03]
   [  3.81092587e-03  -1.70627655e-03  -1.42703969e-02 ...,
      4.84461756e-03   1.44995684e-02  -1.60099892e-03]]]


 [[[ -1.07938647e-02   8.42385867e-04  -2.53191544e-03 ...,
     -1.57902967e-02  -1.31811332e-02  -1.49402218e-02]
   [  7.53074372e-03   1.61252823e-02   1.06019462e-02 ...,
